{"sizes": [784, 30, 20, 10], "weights": [[[0.0078100751399476035, -0.003475238569899911, 0.005150871978629526, 0.025793055597748773, -0.01088924195514829, 0.001528192938888254, 0.004957560695882748, 0.005023208302318426, -0.004349232786677923, 0.0077143707001932705, 0.004273901417027823, -0.009904630142122105, 0.0057198405522004905, -0.0021222128756174558, 0.004521873760991385, 0.0010240830619876163, 0.002867897480815745, -0.006061029673141554, -0.013471853989177503, 0.002818346842360333, 0.00038213649504639883, 0.003674243419291259, 0.0022254534136619975, -0.012484024761187477, 0.002833145270860815, 0.006865701637949642, -0.0030371296169066906, 0.0024431385207553348, 0.008348025994974959, -0.0025423563506568455, -0.013241525302219372, 0.003551184555050597, 0.017744841165241654, 0.01897732105082957, -0.007290312019536879, -0.002688598166076419, -0.013565006985767283, -0.012412704403121458, -0.0002402109125328899, 0.000943131652958352, 0.0027132363973276967, -0.007242609852301897, -0.013161649958374187, 0.015191668511142875, 0.010958613649088383, 0.014046984643199081, -0.0030857620100276538, 0.0039400918742833295, -0.02409991138625277, 0.0037181359772692473, 0.002263098885651079, -0.004045874415710488, 0.004056565441151816, 0.0007847446579234808, 0.00970201267511979, -0.0031025779930026302, -0.0028189824510850073, -0.010840025528346247, -0.006363296026137404, 0.004579027674293373, -0.015209913410383392, -0.0014629430058793777, -0.02048044258367168, -0.008616515550053504, -0.04632184734031309, -0.08876160194794329, -0.1110487267705746, -0.12904807869514373, -0.12911736672047244, -0.10354252553595102, -0.11886004562081136, -0.12686389830253397, -0.07453098351055198, -0.06038462679358336, -0.014694695190646515, -0.0010746125645681374, -0.034542347555731275, -0.04789727608206298, -0.009800819895038417, 0.01193258104159449, 0.004974918249694286, 0.0015591598898838774, -1.654185870225183e-05, 0.014515654833152822, 0.005747583877281359, -0.002921763968773138, 0.014998748200447536, 0.0019172490507222226, -0.01013877131654387, 0.016744990249321384, -0.006241804996653311, 0.03535124193554848, 0.09024187007934349, -0.02604627069001946, 0.022263136922014624, -0.03310383580244984, 0.05189541087800547, 0.08998998054083097, -0.006815603209267654, -0.076671818433393, -0.07492997911004042, -0.06133450397359334, -0.09796714542895386, -0.15863361417065214, 0.01643279673933359, -0.13025406486741406, -0.12169518841649864, -0.03518537830008517, -0.001888885896402336, 0.0004671115091458204, -0.01243652724816741, -0.0038691490043990953, 0.0028045030918721616, -0.015103505278101783, -0.0009580913674137742, 0.0069999378963825284, 0.012010150570267084, 0.046608685067866557, 0.08453381203202077, 0.23049334656700843, 0.13811075976994616, 0.10268447135659015, 0.07957205380087193, 0.40544638901956137, 0.3763470088040166, 0.12612198494146912, -0.021430549800596242, -0.00029031107871775385, -0.21433268446598258, -0.4076499377761881, -0.1171103974791523, -0.19725987617117627, -0.14109911388667004, 0.07683322057507094, -0.0067114217146096574, -0.025462869771486638, 0.03065620449315801, 0.02284423986203278, 0.0006804068643641051, 0.007334802428974143, 0.003253912619025414, 0.01385579283992382, 0.015482734867000964, 0.048554884995348935, 0.08738020700106645, 0.15438590892554824, 0.07693808639118381, 0.06544657934704286, 0.02973671261297499, 0.26215440939433937, 0.31857383366911, 0.7192953494486166, 0.3919123389570026, 0.05082708636600747, -0.2146975559776036, 0.05624255092041431, 0.029566691691003948, 0.0027565289405255787, -0.07060578358906924, 0.054479036766881296, 0.05128013662470616, -0.03342856570325863, 0.029670540046932203, 0.008441797991063042, 0.000596594639625232, -0.04884297818514329, 0.004760274239874244, 0.005511500057095848, 0.0024510674517766286, 5.956370746438667e-05, 0.0160767255840972, 0.12224416067599474, 0.12593909857239963, 0.015791260866024847, 0.052464551458207345, 0.06046611227073371, 0.12153834442520728, 0.1621753371233133, 0.37825855409577114, 0.36726692156228874, 0.1314868951876724, 0.23041493820918893, 0.059279066504170114, 0.15867534092189275, 0.5492657048329936, 0.3919427862056463, 0.6004559833010353, 0.3141755036272907, 0.29394541699686955, 0.153623346908857, -0.14531240136412288, -0.11743216123968746, 0.003110661200808182, -0.005309604062814608, 0.03487729359816711, -0.006762858002456828, -0.002280740632491387, -0.007882519562191931, 0.033658903630757124, 0.14853699641774074, 0.19564156140903902, -0.07158621261280722, 0.11671016549589788, 0.031124994448802335, 0.04217646602537807, 0.08823838756774789, 0.033247251406343034, -0.02754925110443779, 0.09185035433310026, 0.11985660565046034, 0.07004079090829943, 0.405050938457526, 0.2640466760460397, 0.2790709378672916, 0.1433273492475836, 0.2630095440034238, 0.3938972568691353, -0.15863187322132813, -0.3714719950182992, -0.10402857250706929, -0.13512214824628824, -0.027322939023749597, 0.018116397725557027, 0.001566184278711572, 0.0077572482168565444, -0.0046762327745560025, 0.007029666982460837, 0.10214398245313161, 0.18271507588985594, 0.11938660842754162, -0.00015857068103336156, 0.03388320961811749, -0.07332693650293308, -0.014948415830116805, 0.09440403051038032, -0.05365777164260196, -0.2821725316343323, -0.34675364444395496, 0.2308770850446705, 0.26823599520211566, 0.5274103900360473, 0.21983907471030242, 0.46778528504423755, 0.2939910431377987, -0.15797958798852427, 0.0031649079073353954, 0.13048688588335347, -0.07059009967056132, -0.0772391733519863, -0.05461405510117419, 0.0030602716495186995, 0.0062874918065169896, 0.004152980057424941, -0.0006868529296133128, -0.0015549517766209311, 0.10283286207109162, 0.18840400637114224, 0.1753662833302, -0.019460161097920526, -0.0793560993958867, -0.02750821150273291, 0.01583804254840399, 0.2939268452737693, 0.14581189725052549, 0.09970035532220585, 0.08435220975797014, 0.21384672787154624, 0.12798185233256162, 0.2041438453113224, 0.46420492923885215, 0.019357771660117592, 0.08713460443233229, 0.03782244320818737, -0.00015298171265509277, -0.0020479571969763263, -0.25906832021972737, -0.22248562009164843, -0.05313135656708089, -0.05953465876503012, 0.013886075743949554, 0.0008419433604435386, -0.008051904491924191, 0.04613216501021721, 0.13922653400670387, 0.09891616217654166, 0.09897592434327578, -0.2767594654754638, -0.3130468253781662, -0.07431700320270683, -0.2011827824745793, 0.0027094264737136595, -0.056061787019253344, 0.006910258507073547, 0.11566530959757669, -0.22145549518728797, -0.2055672487209881, 0.21092766700112894, 0.19505125669550727, -0.24892887323592097, -0.12336363792383308, -0.16831466959092717, -0.10307510635717039, 0.024830925489700634, -0.20602389000959712, -0.21390180348664975, 0.012726662224978555, -0.006538198091034569, 0.013990566545910296, -0.012654187569637933, 0.003964669749306237, 0.04027323572983862, 0.10766443882694304, 0.1092811413421582, -0.0830378990277437, -0.29264962559843827, -0.38074864220229715, 0.09433392940997411, -0.32283948191587336, -0.10058247439328614, -0.07905180665051448, -0.47786079709608453, -0.183179135887617, -0.16945232967791932, -0.16804111096636143, -0.24435687956188157, 0.5387374711004216, 0.3556583246817574, -0.20669521490736747, -0.1479032246066041, 0.0007081430871290414, -0.005818656007565352, -0.20673318675432056, -0.24712003326993448, -0.046877800885544114, -0.018202934323849125, 0.005015591158456042, 0.017609206758321814, -0.005676883129023784, -0.0008203463391805841, 0.01302927169133623, 0.07332981652217213, 0.0724102845055135, -0.23623964555290725, -0.2744599967833177, -0.26766053435088594, -0.16363187200980617, 0.009759115407263326, -0.09454433005715557, -0.3828516485317326, -0.2333799496442808, 0.08854944964580351, -0.10933406711417355, -0.09013525282847235, 0.41137093389850765, 0.446962296085438, -0.038976269187831224, 0.035763079020272065, 0.016230035009321183, 0.087431951421002, -0.21181021772901143, -0.4236217799656055, -0.1363598565622119, -0.03935334953727398, -0.02449336045788492, 0.002356855758287126, -0.010479743331054054, -0.024074761316073452, -0.004684418023574234, 0.22319747154651626, 0.16093943620554138, -0.07027807729483093, 0.05138617292177236, 0.030529089048244425, -0.2565025568561214, 0.3769680571575605, 0.13104013877299872, 0.028923263100385194, 0.0037166245230154183, -0.10636910383625746, -0.3402192754688965, -0.17861770141421243, 0.30893660421855595, 0.11847117114193823, -0.05995053853675545, -0.040206947150131775, 0.1598598136244322, 0.08328608428757278, -0.3652838600465991, -0.36270575078896566, -0.20216325381991587, -0.10195029091109026, -0.0483044513964651, 3.009093493162891e-05, 0.03738439885956154, 0.025125734971420722, 0.015425767746721787, 0.1992031593355057, 0.028153319656234653, 0.035762003193846634, 0.04236268241571747, -0.05328257499043092, 0.1641467722152808, 0.10555412326081214, -0.0029269158784268846, -0.17089566656683028, 0.043643945983565365, -0.21146993081670443, -0.3557088503970319, -0.20502951703217817, 0.39596092849238573, 0.4275626175143837, 0.2239759115126026, 0.08014279221063723, 0.045141750626930606, -0.10479265262275685, 0.019285015410388764, -0.16573745013041905, -0.13092336541684504, -0.07306976500192634, 0.0034701449640284323, -0.00921362452430374, 0.05093354932159294, 0.032707249539216436, 0.009947633488980801, 0.11356385120937822, 0.06790292400041063, 0.116858657813505, 0.2087166855154051, -0.15073544203519676, 0.037601163675247275, 0.15779175947737278, -0.03223503693563239, -0.052213565614223786, -0.15786142247007476, -0.4320415037566554, -0.13758185598469405, 0.17018099154922134, 0.7127826066497179, 0.5937661475040786, 0.2723122027043067, 0.13120519709700026, 0.26396523682446177, 0.2675064454817699, 0.19358806031849757, -0.11496517088531517, -0.2716575519004224, -0.07986803665550041, -0.00861150638773288, -0.001231696310282007, 0.02150554295178968, 0.05447427437281894, 0.04197312891595887, 0.08389937115750333, 0.31128473441429005, 0.2122218253128754, 0.26019993653662965, 0.06910321066660989, 0.06301106048243271, -0.10377040642421552, -0.41446375344397657, -0.3478095343858403, -0.2131918330765057, -0.5452743822008712, -0.40176076589717646, -0.08368651945810374, 0.5345242461083991, 0.27673827127606454, 0.338423609633731, 0.5419427811508587, 0.35975174636555024, 0.3671763348452697, 0.2244182280012518, -0.07097827151018121, -0.3339591212297121, -0.10545317041446864, -0.010312528718089149, -0.001603673850664357, 0.0018171296324116357, 0.04100920924508874, 0.11558461492667578, 0.13699559746689863, 0.2553272511714234, 0.3009445767385605, 0.31948886481345784, 0.05605674047786445, -0.11587368533660154, -0.10004971282003089, -0.18886365673652378, 0.09286834302866952, 0.05503898645885922, -0.21045120173786608, -0.14270458699906144, 0.007266246156254429, 0.4811423131271155, 0.022258081950746127, 0.29138826633626547, 0.21638223560445918, 0.18829900942069142, 0.3727492776694537, 0.30971436438146255, -0.0013089175358811775, -0.2579942893001932, -0.020830093509513776, -0.005569304857336035, 0.0055926706253735005, -0.0013507507963096028, 0.03404693653727911, 0.16917975890421602, 0.25993279299997757, 0.20136466220329532, 0.07048062458887293, 0.011082593824639109, -0.08413522478374487, -0.47970153985041225, -0.19558809545141875, 0.09619702730187925, -0.29776761831483295, -0.25865017633607057, -0.3917316200316346, 0.02074264326934887, 0.1022555200406087, 0.34047821226507724, 0.07192599036576426, -0.04689107432232465, 0.10235663776806522, -0.024630418508972504, 0.1491391137470173, -0.09133260258263017, -0.20528613903519924, -0.20722650051469976, -0.026700328369591807, -0.023207976655537327, 0.0008757659962461579, -0.009342192779862155, -0.013699924879988697, 0.08126850968305986, 0.33950084700187844, 0.1819260143388581, -0.24809817187109817, -0.07420847671418519, -0.1492774711461208, -0.4055792815449943, -0.4142799781134762, -0.7009040514284565, -0.39440896173913365, -0.4422034095766468, -0.023821233581799377, -0.060674072766789544, 0.22123702926518973, 0.09693827811980348, 0.06363022673174612, 0.21090935860423643, -0.16183422411527723, -0.05125342716398857, -0.07376354921921026, -0.29861902619967906, -0.19442502187437116, -0.1864753741747813, -0.04409713994210579, -0.002832092300116196, 0.007805331702806541, -0.004772179411403968, -0.02207546867141269, 0.033150872281525655, 0.2444575445951388, 0.2167053465076558, -0.25019996702678216, -0.273283633191823, -0.13417865523305353, -0.2382864317891398, -0.4823798096758334, -0.5078930855838787, -0.6466577213879477, 0.05937630480643871, 0.11731467932910762, -0.11893106910214947, 0.24083645395112824, -0.18173080208934353, 0.0003582762287622314, 0.07913746105676409, -0.19650156908067243, -0.06319394026148406, -0.03835243930853182, -0.20434402569937077, -0.07554192095453613, -0.05694173545832885, -0.02261233400350957, 0.0038909833556520948, 0.009562581126825976, -0.01118459844003083, -0.016670294316738693, 0.0011388319178627486, 0.12402349362070639, 0.1206139213543421, -0.04100995069424873, 0.03235914527874975, -0.1672494189429015, -0.5749632798366491, -0.050137487060150254, -0.15851514920581578, -0.36634623959537665, -0.3230930777789026, -0.1216568713910454, 0.01918224696258778, 0.18619934664543833, -0.46002441740978756, -0.09971024755629034, -0.05884400602671881, 0.03644084468287343, 0.03581241540048502, -0.08696176379414147, -0.21745833600620632, -0.08053269951896067, -0.08702369566643677, -0.02071737818080037, -0.006943687168555782, -0.02011473755859202, 0.002489198484946956, -0.018492154807367264, -0.07790776984685965, -0.008451090966227103, 0.03296004839637711, 0.2523189869070383, 0.13726511966565896, -0.01932760398671921, -0.12945639860242247, -0.1361257968366531, -0.1336450717741043, 0.002155279103586541, -0.17315087354574207, -0.14736545913556848, -0.134139915481996, 0.09293369521897266, 0.003287280631456872, 0.026818876613018506, 0.08203785264813448, 0.09197669243120446, -0.027545365106843564, 0.05185044520563613, -0.024055619642907717, 0.025542033899028236, -0.034243862016802594, 0.0027645236934843984, -0.00893869670089172, -0.013737251726617999, -0.022870685361876107, -0.016172368922308316, 0.06090519294819743, 0.04041586315857199, 0.1660444624277476, 0.09568980841399531, 0.5041270103552035, 0.3071669250339522, 0.3390584741191169, 0.2089727159412603, -0.05492420166204398, -0.47545991949219557, -0.31165580408324317, -0.30714888359695824, -0.03374817255410369, -0.3100421362261553, -0.018401810486489888, -0.12274483164560887, -0.40494315714934853, -0.15862589128444313, 0.007586843366075456, 0.045811122236154384, 0.04837935538619994, 0.1397039183476545, -0.005639191439260009, -0.02013611863028883, 0.006824627160956544, -0.009203138516074906, 0.0024887483786582426, -0.001203701898880719, 0.0655565886003821, 0.17110019147570488, 0.2590009476403665, 0.2075230584103731, 0.36699346325975285, 0.3478174698978902, 0.12405055062072143, 0.11705091793801785, -0.18368859295229084, -0.3745258715382748, -0.1788552853494328, -0.1372035941620992, -0.08713559666446226, -0.05879938124826524, 0.11527560405146245, -0.14361571607799167, -0.2931729782980834, 0.015429565020955894, 0.15871765105561844, -0.005688388915073534, 0.06192523548858732, -0.01002724735935999, -0.05861554595477697, -0.024166613622701155, 0.008842191980518542, 0.0016549689322909562, 0.0036174630078618887, -0.002622389953494378, -0.006275715237794856, 0.10641658251629235, 0.20365778111913316, 0.12621386226420084, 0.15705996283009108, 0.1568193216318409, 0.2028641167296798, 0.06274961997767277, 0.10117969807930763, 0.13686028944423811, -0.012953625508027592, 0.09111624400190337, 0.1954023903675191, 0.2241717862111071, 0.07868068651196183, 0.23433790389956924, 0.48842044001763907, 0.22100800514007324, 0.14540051404762883, 0.06645649052724073, 0.002022784934041578, 0.0019322543467761096, -0.029607247186437976, -0.017870993536149685, -0.004938399556593877, -0.0020030415647015252, 0.010096974906807447, 0.006951539218119328, -0.007234842762672147, 0.03776967976741891, 0.07286094132699143, 0.09713092897568713, 0.1428872396324146, 0.13852829675145914, 0.1840501835859022, 0.32020377646313963, 0.20379767169069454, 0.2024860192634802, 0.2271136461692344, 0.3465437802968037, 0.24807634820757632, 0.10135069214648143, 0.11143077672550006, 0.1019653775117458, 0.13228236908536392, 0.1370854010789633, 0.09720770294536511, 0.0323180356689425, -0.0005552185960765028, -0.0014990836580863643, 0.010511592694922692, 0.0028008953361345536, 0.0015232050258224853, 0.010808970976608396, -0.011797490378877291, 0.006550945068966106, 0.0002972001627340348, -0.0064902754530675915, 0.006829760344525611, -0.006099279689756941, 0.014627495876069685, 0.029803672216633596, 0.03193878457718794, 0.04447627863002627, 0.027806488368409318, 0.028353095659623313, 0.030228112936676023, 0.03900518293230271, 0.016509348328906076, 0.006712427288850692, 0.026871082332960563, 0.06995598188412926, -0.0005814506741588377, 0.007011373308604305, 0.012222859440446049, 0.025524061149962973, 0.011298845763807129, -0.008654455867397957, -0.018652676379043973, -0.0074804775500988815, 0.004196201342959378], [-0.007287729520778038, 0.0011248590524847086, 0.010015029562896145, 0.00046985414363740976, -0.01692065186378172, 0.0016059363417583099, -0.011551096274767862, 0.011844548908861198, 0.00862663330212054, -0.003087697001653372, -0.011011905528774723, -0.003257401488259293, -0.008183215164827376, 0.003333186319409158, 0.002906792806248594, 0.008165265828146964, -0.011385867152634439, -0.0021217453202805265, 0.0058907618887681975, 0.003349881862780285, 0.004966297102973219, 0.008077137938523708, -0.00236855676750576, -0.001507422821595321, -0.0017075223512100686, 0.0023401144011240263, -0.01094694414884631, 0.0061979122515356, -0.014075064222655543, -0.005918319403815449, -0.0003653370528113778, 0.004159857808314041, 0.00800975879124797, 0.011042829246510278, -0.003016897396797468, -0.005725785748702957, -0.009436948392179416, -0.0077015093609493586, 0.004487360060142743, -0.011549234962665623, -0.01568268872290794, -0.018595270771264646, 0.0004092523730106142, -0.005141140301685948, -0.0018312438255617238, -0.028359026522816178, -0.02739928472903639, -0.02631128566547379, -0.029701995781398004, -0.014267050503163282, -0.0011644033183029975, -0.00955763011522079, 0.010152803944134588, -0.004719586495973424, -0.004228779128325241, 0.0014665770258834971, 0.00800140634563612, 0.0017116309951728042, -0.0060177781237563234, 0.0032628891341807006, 0.005676146678340113, -0.0006200080446451741, 0.0032400851458197037, -0.0032416185999683653, -0.011717980837071389, 0.01613781234875533, 0.03893395414659389, 0.024660561178112998, -0.014587031369032145, -0.00489669309826608, 0.055099150098333556, -0.020256356549282352, -0.01118780290023976, -0.009619113968832659, -0.08074145138559484, -0.0678963223492114, -0.0049760495590503665, 0.024968130593081, -0.0066431557410474434, -0.004231205026374617, 0.016581301384351575, -0.011470684762977574, -9.29676801650533e-05, -0.010266952191975558, 0.0031991367770094928, 0.02262620094296887, 0.017455027780262672, 0.005340491973224814, -0.003962410876689672, -0.030214427373513996, -0.0611741392500751, -0.045330815087723714, -0.03949479894118704, 0.00015731303191212525, -0.033226907564809234, 0.047747899793093386, -0.061720777462706974, -0.23809418871423416, -0.26109240460498495, -0.2887146078489016, -0.2635002430512486, -0.08325768611683772, -0.1575403105299361, -0.2653104239357091, -0.17591845865799227, -0.14281531055298693, -0.036560685519465085, -0.01754003948154525, 0.017446874506258297, -0.0049091244474810366, 0.0019066120435096967, 0.01714129415140541, 0.00921793444549525, -0.012953747630590928, 0.009544571182437952, 0.008315911577741366, 0.015413708585913897, -0.014733867392535857, 0.04114986126460977, 0.002340066265534107, 0.029959464827470552, -0.0436016817686325, -0.14077219286297582, 0.06381381275306086, 0.024389710185017534, 0.06791791005891262, -0.2785726728251734, -0.41952426648019564, -0.305484927286855, 0.05901652048073552, -0.1408915335175715, -0.24561928041387243, -0.1462630878031429, -0.23846793511562936, -0.09476241345112055, -0.12870444589565422, -0.08849715552096725, -0.006408890418158338, -0.008425478541206096, -4.814955732877983e-05, -0.005090381031758823, 0.012782951870016605, 0.0025072823800325146, -0.03977016387439599, -0.01962896202290754, 0.04100915991211539, -0.03371360968861148, -0.07833343751139413, 0.17728401339855845, -0.02012328123837171, 0.1686286628660887, 0.15498379635944168, 0.008207250602071704, -0.08639154575098182, -0.05585408666504848, -0.19289170861776053, -0.15129269302828655, -0.2353769100509122, -0.333794575075194, -0.34682294960447263, -0.17444693347318954, -0.2657332069924911, -0.2349514070173735, -0.15695003941713076, -0.05891718219621753, -0.010248360637090392, -0.022895002180658514, -0.006699256965893943, -0.0027392852811833016, -0.009307116322512838, 0.03182291758236738, 0.0005040945361958897, -0.04873904686495573, -0.2098971949182577, -0.15036301195644822, 0.00038886105755748553, -0.1610130263600513, -0.02100903657549008, 0.10300936025705064, 0.08724865397156688, -0.2176489954206889, -0.16300350475645978, 0.17558218887323304, -0.051175229768558705, -0.21889297024043788, -0.0681285948163793, 0.25962368727284835, -0.08267671081577618, -0.18266557217863602, -0.04517436403393671, -0.1590345777760536, -0.23638431204784585, -0.45891070506016923, -0.3116115314426147, -0.11212008529715171, 0.0015012673601514273, 0.00459377794101687, -0.005348056883023835, 0.05427204979198605, 0.1273134750681854, 0.027384502573277562, -0.09484680456220189, 0.1332432139907205, 0.1984088245179699, -0.12824372198606304, 0.20013844177546558, -0.04321057733416417, 0.008786202691799945, 0.0350070388433545, 0.13579058954931678, -0.013741530699460337, -0.378829279288706, -0.4226095122002066, -0.20134225109320847, -0.16722986031583675, -0.21922932033926099, -0.3225129810338342, 0.02428773537849628, -0.025897549986949476, -0.09073853411678957, -0.30811658692378285, -0.26251967906686646, -0.11490014888632, -0.011159994332093534, 0.003384516207584924, 0.008987810105592976, 0.0696091125391178, 0.19297869473378995, 0.09270207986275306, 0.04967409457911996, 0.18380919608868898, 0.12872762989857264, 0.15130764065869193, 0.026300492913432384, 0.11791714297947695, -0.010565833976042325, -0.3385550946269835, -0.16856932603392993, 0.11623785603102862, -0.09660074933568047, -0.056056306357946034, -0.024388653549719766, -0.1735042737743899, -0.05080359869504828, 0.1069642005962236, -0.017684305025089348, -0.2921216902624249, -0.013185348602352431, -0.39531717215186724, -0.3221062443593378, -0.08769166690412837, -0.006665848801860713, -0.014208079542402772, 0.040893564147149716, 0.07238874528586631, 0.17049848353958055, 0.0907298300272218, 0.22322373362745876, 0.020480705276158948, -0.27167373034685, -0.10506925190210807, 0.1076947656205408, -0.03406469641697038, -0.04859529833798962, -0.03236920417995333, -0.015934444204422606, -0.0423961470358897, -0.2806174296292164, -0.4873395343900794, 0.017142848061421332, -0.15840520969364325, 0.2691532970008727, 0.17744205657141598, 0.014363810338425227, -0.3400437120572819, -0.10406876680450776, -0.33785252616420447, -0.4054770172968484, -0.09546879712783897, -0.01540139080484243, -0.0004506143322785141, 0.023786586865124547, 0.09025133836487825, 0.12994965783114068, 0.264429637133718, 0.27519880284150705, 0.045937420582065555, 0.02292147173850134, -0.17571692994607319, -0.23125040521417398, -0.20284547887749482, -0.03305616125612726, -0.06393900367757571, 0.02890370896243158, -0.5211959865043215, -0.6932510739219704, -0.42786241366098776, 0.2583987700363362, 0.04495324191356508, -0.005300759905933437, 0.14428596349859493, 0.1339261633701262, -0.012612821466578982, -0.06783180404383601, -0.32901339590409134, -0.42981462564169426, -0.09490946176724137, 0.00034422730652911, 0.0021163217744395962, 0.013226211120008553, 0.09566439975379429, 0.22483665124276414, 0.09423507110868458, 0.0366618766718975, 0.18033657396404765, 0.3284894645153439, -0.06963737124013686, 0.08218674813938491, 0.1641434445803354, -0.11550857034757339, 0.001224499975906435, -0.24443575574602078, -0.49479991483114893, -0.42882602028127476, 0.0028811253906198563, 0.1389792984396444, -0.24352427439719265, 0.07209586022482946, 0.15388941176150214, 0.15497161668903126, 0.3751266955116138, 0.2683136413999722, -0.08602889400924398, -0.13667160816717805, -0.060433326715101196, -0.015206536724485398, -0.003199184746217668, 0.004937455628822144, 0.1371047238205742, 0.25036582662039053, 0.07704304147370221, 0.09314334907394903, 0.02148830754709606, 0.06728139015795816, 0.053802073933553546, -0.09601131296065425, -0.14844028118951919, -0.16049263378192746, -0.013134958641954839, -0.4223017288850348, -0.8082829921312156, -0.6608345182098494, -0.0009000747460194581, 0.01709028356007506, -0.33698681674449554, 0.00838102446701677, 0.02100932383020739, 0.23835616931881143, 0.608842469382747, 0.44108281449086434, 0.27850680212682377, -0.009120026774204964, 0.05489276928396863, 0.024131576922182676, 0.004856731599519898, 0.016607677466392717, 0.11578779070088899, 0.15142442444244827, 0.19736128610554088, 0.19648421099895177, 0.1714887217417498, -0.1658248386255485, -0.5839832621813171, -0.015424749254430523, 0.194572592993905, 0.21633456895775469, -0.22237407446907, -1.0297953603525474, -0.5687627608552894, -0.018726839922512457, -0.0036306054336079155, -0.0017156706480956324, -0.3167820227387909, 0.3410198947584949, 0.37228207705191924, 0.4953445382664573, 0.8061550761157427, 0.5148163040706443, 0.3924217510540479, 0.10943777340776235, 0.0927665897454204, 0.043564838068919184, -0.0048669173346926236, -0.01171398339432989, 0.04071002298836547, 0.08513084578251014, 0.03263435653602232, 0.2676817404912096, 0.09575640644038344, 0.05692772359837294, 0.22555904179753886, 0.19100184370636838, 0.33845647015576835, 0.007206592687210392, -0.428952291720109, -1.0494861608580923, -0.1452601866517412, 0.13837147317405746, 0.11668108435321212, 0.2818166883081074, 0.46056017357748313, 0.85307052180881, 0.6290023992180223, 0.6280979855875264, 0.6738863426825, 0.42947157906350436, 0.13858311743153237, 0.1082954170380144, 0.08488039617728778, 0.0030085868465223146, -0.005608123049633522, -0.010141289945429073, 0.005508044605899085, 0.05940708669529172, -0.07966137076850945, 0.055896750565533046, -0.04496483832309963, -0.04604435223464957, 0.04394417272191773, 0.4222708452686946, 0.16374022499042795, -0.07195008739756245, -0.8083282145493313, -0.9511906406492061, 0.009564542517195303, 0.6029458988802647, 0.17378635194779932, 0.7283467593671257, 0.14015593627952944, 0.2540610097036843, 0.3083642297088884, 0.31449035708711626, 0.35069501229119954, -0.10578892284250188, 0.03456030755516062, 0.09600274785657598, 0.061524342521016295, 0.01126802380626802, -0.005739887236264986, -0.004760315921986424, 0.004434213627027919, -0.053976632047214146, 0.013542705370819912, 0.09750673897444705, 0.19181268711876215, 0.3866427960391016, -0.10904235460009488, 0.22252839107004863, 0.22874359523761004, -0.31444797737560776, -1.1515762372158527, -0.5525498859081719, 0.681714072510594, 0.7449485794469898, 0.37105101224098036, 0.4285602154666278, 0.08057602617980485, -0.015727798816770663, 0.09554060220583534, 0.22468992556200945, 0.009463059609545814, -0.3469598773208744, 0.048850371118508484, 0.1704914807482152, 0.08778104481716906, 0.023004593835521184, 0.01833624826075861, -0.006938460647703692, 0.018029930137032007, -0.20231010645692382, -0.04446095656074955, -0.03306532430643844, -0.0122357162651354, 0.05020207990968352, 0.03847008454029908, 0.2185961933137843, 0.07631198186938794, -0.39929286801774205, -0.9746159879594104, -0.008608664664162866, 1.0716680522472168, 1.1205938390046497, 0.20229998795213613, -0.07988224834922798, 0.4470273602000941, -0.1677966020166772, 0.049707350213507175, 0.18101631867678766, -0.013511325962957099, -0.3687256434797985, 0.08139751337696279, 0.1898753874954412, 0.08687884681116347, 0.016047511433157004, -0.006751627749104671, -0.010254494285748473, -0.022135046619231376, -0.27696436687030795, 0.0169999577690049, -0.09013450111021071, -0.19374166359250272, -0.03273623822649512, -0.08637099888465788, -0.056027935153961116, -0.027393373051738345, -0.2285670551908888, -0.18256528658679982, 0.21264643086847598, 0.31826975283603154, 0.23054865065703206, 0.29808669813390953, 0.3231416975440332, 0.540550674284409, 0.22816610396001707, 0.17437825411413393, 0.27492716243212034, -0.1420819780716342, -0.2022342987627488, 0.18804943718297265, 0.1492943777345376, 0.06447752881972171, 0.04054172137353171, 0.008549479343187179, -0.0007299517573675699, -0.01342764449493359, -0.20661115852276696, -0.14719815044331305, -0.13640891037300404, 0.1256179344191024, 0.1711605490958715, -0.0378920046064719, 0.13915056742197487, 0.10249557446161191, 0.16012620241294684, -0.08991950490568275, 0.18813376748702065, -0.07430046251922975, 0.09461998918673278, 0.14342960568726876, 0.16820616276077965, -0.0802534448034609, 0.11596959582194885, -0.4302897343348952, -0.1641840940733276, -0.16969167109209202, -0.20017904580272938, 0.024265732728530734, 0.06183708568081174, 0.027646748878075153, -0.0046897592328477514, -0.006823483103625393, -0.00899257513114679, 0.0017986488069838865, -0.1639054390638898, -0.1912006554683953, -0.14818216651797037, -0.051271156973609074, 0.2200494984011517, -0.019339967207922453, -0.1884473605697864, -0.0383337261131198, 0.006342973131276811, 0.02732673950576204, -0.09843153873013341, 0.027382946279117287, -0.06267577497481923, -0.026636091650021548, 0.2569911653455109, -0.15597781281953357, -0.17300549653351752, -0.3007030168365834, -0.20816767573369843, -0.25945116464934453, -0.25136818073409145, 0.04051276173004495, -0.03038295104341195, 0.00783857783820337, -0.004373352489221241, 0.0024101376666499706, -0.0016103330407250202, 0.042417236544009904, -0.03768418718084941, -0.13469149911160794, 0.1661924185381785, 0.14190594060889095, -0.1957255262680717, 0.04476091351393311, -0.08122799709367726, -0.015656284893376272, -0.028928574451775452, -0.004719894643282248, -0.015130584464912658, 0.21275321235687417, 0.08115927862482358, 0.3318545033515815, 0.09418960074729484, -0.06776499756740957, -0.07063379517211218, 0.05932555136566765, -0.10478102254403199, -0.17949467101053806, -0.06335202021489893, 0.17026535848171662, -0.01022096795917488, 0.0034423665298658696, 0.000826772568345701, 0.015722108840849507, -0.005552253319330419, 0.006092248665454306, -0.08451654971099383, -0.11520352808962711, -0.0915758972850375, 0.01428444129064083, 0.11816700496305284, 0.26756830140443466, 0.24999518520783326, -0.03806393005425527, -0.07730751186491647, 0.07240526103235644, -0.03691943010382148, 0.005408887911984859, 0.3100568261097133, -0.03245285666855211, 0.001432035544606895, -0.15794036549992554, 0.13165063997712265, 0.07043453657628597, -0.08924981210770397, -0.15976745447049126, 0.0014810726428112113, 0.11161486855050373, 0.06252719295954928, -0.005652148899986998, -0.0035932963763696166, 0.004370197543176071, -0.0027978125476441833, -0.036887746659791484, -0.15302249140916196, -0.21319919005279514, -0.22892794525084212, 0.0033296727278463076, 0.2854710450772649, 0.20852360240441, 0.176483945898337, -0.08982211230805082, -0.24922819497081733, -0.0399814377585237, -0.27583133811312294, -0.14742461288988618, 0.21192427834905694, -0.10349243984893128, -0.0584865044833324, -0.1675372052645298, -0.12936552169688625, 0.05377356389418387, 0.11791600780640378, 0.009694959630041204, -0.03002063611932039, 0.00600467306282896, 0.08152866759798694, -0.007062903870828197, -7.320476847424297e-05, 0.014297766598021743, 0.0025137076223887317, -0.04013662225779565, -0.07926496028688873, -0.13199237119889592, -0.16484577307529802, -0.069775078530554, -0.16129222756542902, 0.07917718092040539, 0.12992891277369542, -0.06262228443337038, -0.07460314886338382, -0.14967138384230907, -0.2336092367449147, -0.13626012497397738, 0.05952931767056036, -0.1838324702154469, 0.05815736233395372, -0.10438569324908617, 0.11958877573472199, 0.013524279435944054, 0.24417661588107825, 0.1303493718895951, -0.09087577435887377, -0.0348490237852565, 0.05959155572096286, 0.010529454054997115, -0.004370587777014032, 0.005167761036199933, 0.005371228296407555, -0.009592390528623049, -0.0005577026424761543, 0.047980848176694124, -0.08130617031375803, -0.048097694266298244, -0.12558813008111105, -0.16824069175600126, -0.13380017793820365, -0.24888034427011707, 0.010741708739721275, 0.21843881581434343, -0.18230487678765195, 0.03183728632021541, 0.09283176683659226, 0.16982759512153336, 0.06748274682942221, 0.2039934277576712, 0.022698876055826652, 0.03289787292385266, 0.07328099936933292, -0.007284574155849554, -0.13481378291661528, -0.10015274196825674, 0.007028005906583486, 0.0025084667600158385, 0.0038094428401774464, -0.006092731302108729, -0.007539334052849552, 0.0002526818212739451, 0.000977517813623564, -0.026750886306889536, -0.08761175434274764, -0.052450547855653916, -0.046414227446661446, -0.002042338731278795, -0.005249142712037399, -0.16887197804289478, -0.1455221928803711, -0.005029719463125312, 0.10484584667259281, -0.0002527471433016232, 0.09067317928944693, 0.04865969701630281, -0.06267028091930883, 0.07545086431884794, 0.10946722698140396, -0.04084858517313684, -0.03245568253161586, 0.009596073056856416, -0.008675787376077364, 0.008240893093375945, -0.004913232595495007, -0.002803428164313259, -0.0077454086105141675, -0.005693301319879825, -0.011992278579959824, 0.003272433778861205, 0.009301325986395003, -0.0027907440872915303, 0.007161940074330573, 0.0008888379451093769, -0.02028787349607839, -0.02381662945465689, -0.001277913459028784, -0.0015453426524691739, 4.704885468649837e-06, 0.0026196577859750906, 0.009859200962923934, -0.03573628045613138, -0.05661441594592215, 0.015453442825714809, 0.04437843520803513, 0.033896071276476314, 0.03281718762161351, 0.04203479241329307, 0.06145884633653713, 0.03941510329146703, 0.021689380415945713, -0.0002896305680910411, -0.011366961984896052, 0.007287275103501709, -0.007635854763945613], [0.016170162590515128, 0.004255414641623355, -0.002535677326865046, 0.008758506474820597, -0.0005619434553105787, 0.013120642297005507, -0.005033173563536371, -0.011953661713116443, 0.007637647496628255, -0.010633535790259233, 0.007957962033459883, -0.001718760705989731, 0.004089690730564881, -0.0031064813179359197, -0.013348086592973865, -0.01171714997462334, 0.0019353931346939557, 0.006104048015043613, 0.0011290395242671588, -0.004671203660698484, -0.01623524354778091, 0.02648777410953563, -0.004234692503651353, -0.0008133856249347199, 0.003151026412928122, -0.0034526795935529097, 0.00042066012659031424, 0.0047258038330559105, -0.006362644793722628, -0.014356366800042476, -0.007964998827754947, -0.003544185241812115, 0.003767757956609764, -0.012185855525752964, -0.02179078821093625, -0.011798170366457, -0.00707560537017943, -0.002909844469326104, -0.031600755428446606, -0.027926520683786094, -0.025634539959630703, 0.007779242481339439, -0.003601678601624859, -0.0019861436249801554, -0.008709035432703025, 0.004553401068021148, -0.004431707987796741, -0.008723365845501001, -0.007187413764320704, -0.01884767024304425, -0.020031546641805054, -0.03705421127962584, -0.010172283648608373, -0.006421972958707963, -0.007758056246087909, -0.0002723196643749756, 0.007945736723528881, 0.018110813104893018, -0.004607547872472263, 0.0022813440099969623, 0.003914804991270146, -0.0038015434789079794, -0.004577884428792727, -0.03534979931105926, -0.03874109457083045, -0.04848670800182429, -0.14533450932481806, -0.06311982882892062, -0.007694070431177679, 0.008527497522828014, 0.014649033877588905, 0.011360795140262097, -0.002221420707404916, -0.057091701058385895, -0.05162134938308898, -0.05704523358509833, -0.04838979988291079, -0.02911850370601108, -0.041652463627552476, -0.03981942620822934, 0.0061207463147765285, -0.007932745497329793, 0.021348794352842263, -0.004842288738346172, 0.009000575745713175, 0.007792330473893707, 0.007452876598943835, 0.003273479509247743, -0.0055695298180694856, -0.012921659748244253, -0.042663797004964546, -0.08421355881552446, -0.22557279574515582, -0.23068001778201658, -0.2822614082405858, -0.13944106446227644, -0.09939540720951841, -0.13268404639898987, -0.1573283943689634, -0.035688881624773426, 0.012750146563608547, -0.1592092791683366, -0.2861270880846829, -0.2096583443721853, -0.19965356435298104, -0.2793068945724215, -0.10818511819357908, -0.037538202799059624, -0.006941053249494139, -0.01029925836854214, 0.007037148535711905, -0.008927095083517607, -0.0007757668045880493, 0.0032338569926651187, 0.004822587313049194, -0.006167484737663971, -0.002539041634581712, -0.017529260499282086, -0.05509138386092522, -0.1810573011593346, -0.32625480154771136, -0.32590810736664927, -0.41479345546239266, -0.1816706056477187, -0.2444204408684815, -0.4951628071844145, -0.31810612470404676, 0.04461129457441268, 0.019861984133735758, -0.11375388687995956, -0.23141622929586417, -0.23999904056610144, -0.19359671756177105, -0.15430114687825394, 0.03754127788717487, 0.045292932736796195, -0.07995056156331654, -0.06368379792601019, -0.060262807454498725, -0.028767449783378213, -0.0037981428169186105, 0.0019787811112568876, -0.006344395492220141, -0.0021465004858008375, 0.02588483609829855, 0.07366794374196355, 0.14103634859364042, -0.07043242360067944, 0.004349804585716637, 0.0659507112099444, 0.1242788353252871, -0.0030905995715030743, -0.2559506820042423, -0.8578516850692809, -0.530111671424829, -0.1995813887071226, 0.02072973302422424, 0.0453382741838707, -0.16736706565280704, -0.35079241512802845, -0.39482866213947126, -0.1760776609384391, -0.009258694476558582, 0.0006441708417420641, -0.10335569893100637, -0.16869947580390565, -0.10645811763038286, -0.039422977382530124, 0.0031051223064098446, -0.010046600656384543, -0.01376017603386792, -0.008063578091448712, 0.0031450937989808314, 0.3779884966076758, 0.5269950775684088, 0.3061463328521331, 0.4068248781086757, 0.25131398155183415, 0.2188359952040836, 0.020901312417997954, -0.1259892369809556, -0.7775856919097686, -0.6513704930136024, -0.12203247377937534, 0.4229558992816427, 0.4856646997443142, 0.13409337765580417, 0.004931274318568576, -0.008946380114222418, -0.046725768896515404, -0.012830491352450289, -0.16784264483346178, -0.24028198035506895, -0.13929105622909105, -0.037898817625998615, -0.03596232013768671, -0.006957532550365389, 0.015477967112124414, 0.03734871074393319, 0.10931040190067602, -0.019646590246380838, 0.3559040259694361, 0.3035416321384135, 0.2328395571660203, 0.07096748534215101, 0.3654216498858316, 0.28852208475108926, -0.07543011696401145, -0.4229427443857847, -0.5460952045148533, -0.809107852276219, -0.12431819958690776, 0.7665021365815223, 0.510740091228417, 0.09292845397226832, 0.10996501154506476, 0.40027211813798813, 0.14995500488663305, -0.019131504140374414, 0.1531857503033908, -0.10024028760661313, -0.16926633600238566, -0.0427283252334368, -0.01008508147778452, -0.012952865643365718, 0.010720079474483009, 0.03569987514888024, 0.05117019541446239, -0.10570997979884823, 0.18504897277422727, 0.17788618594457856, 0.5782958044197637, 0.3465063000502435, 0.43720223367128097, 0.3990299072977329, 0.00915181331935228, -0.014743866817030837, -0.39047415852300654, -0.3132122389924768, 0.5202896207283858, 0.35855605895961, -0.038544060962214834, 0.11454406575965491, 0.18796234474664522, 0.03768088601516616, -0.03492248440571439, 0.11226345286897559, 0.1025775662843244, 0.0202104194131289, -0.10212456379450315, -0.048596645416981006, -0.012367721933335222, -9.103119711016821e-05, 0.0370235955192297, 0.029814613744627322, 0.027521779159738382, -0.0896952361010317, 0.19272040378944438, 0.1491092440535621, 0.17978234778957483, 0.31298665059025205, 0.39675378443797465, -0.08474425689122811, -0.2104109740971631, 0.07196741037308609, -0.2862423171366113, -0.187764831542051, 0.41784231003560646, 0.651925099511531, 0.37392506962410227, -0.03744636240606498, 0.17193538899551267, -0.13638469476635492, 0.024400533793065327, 0.055248724139499744, -0.00829922976291712, -0.029786528425038695, -0.0547860263118008, -0.04474320256718044, 0.018332012890363576, 0.00019498777415818255, 0.029267789869680476, 0.07229956816994824, -0.09585487031776539, -0.08082699785507975, -0.05075313856190582, 0.07463526107863735, -0.3080578414097236, -0.05570841268597991, 0.2209852033112542, 0.43213945752393296, -0.30526699388148154, -0.28212916776049385, -0.10176418000942998, -0.30217764315651907, 0.6035006208227741, 0.3994588217597398, 0.24541475741129098, -0.28805602888887166, 0.04368227684478402, -0.2560499916052621, -0.001101240767947589, -0.16288486380798928, -0.3010727498300074, -0.2674254742884189, -0.035856028449858884, -0.032113885201634246, 0.007224626934650146, -0.005832836966979044, -0.005811380227688277, 0.034646290970872545, 0.05589165191313791, -0.030628621393332132, -0.06423990023844656, -0.14783166753165275, -0.20264159361727127, -0.13237487858336772, 0.6699227521602823, 0.24756787345535253, -0.18629702331951184, -0.5485651746865974, -0.4340874091056426, 0.13124695192800195, 0.5801584318477627, 0.437352398909482, 0.26811540299515657, -0.31420372121182033, -0.13570327719491024, 0.03991101359367129, -0.2284545481973819, -0.40696913237455046, -0.37283770319936904, -0.35708686055229166, -0.07959933193266863, -0.026669761612471057, -0.010062003806081524, -0.0026529976609008083, 0.015305085380150525, 0.043406326652293256, 0.006564515020255339, 0.07397257607575301, -0.155598824128376, -0.14860317908210682, 0.2565633093414132, 0.32871299856903824, -0.06143126869332551, -0.2734493603210009, -0.34421094905801775, -0.2965309009156553, -0.22631504713672565, -0.18618783398854152, 0.30803655246795536, 0.6359882550863054, 0.06934504346311413, 0.22837842680644135, -0.2569630528726114, -0.2742443838792155, -0.07078527267419434, -0.08000093448123627, -0.4400508312785638, -0.21796233822694258, -0.03395951198829702, 0.02821862211758611, 0.014851534769461645, 0.004909389366220796, -0.00892324499059484, 0.06522162620949387, -0.029705238769195966, 0.040187198363523045, 0.002454258727192849, 0.21109122256983756, -0.04662987772457169, -0.16472725446730282, -0.0778792187819284, -0.34579509350676857, -0.2915772120515855, -0.6402911007540935, -0.2997286905919785, -0.07219545056541599, -0.0018525044254897687, 0.2106011896184002, 0.1961970713650644, 0.2777478906619258, -0.09365401865921322, 0.06437758522558343, 0.026383170899795055, 0.11579228742035852, 0.05409454434427239, 0.016500715638497712, 0.14730691301861398, 0.054532570957427765, -0.009128302026631663, 0.0026702725342691797, -0.0022255744039659776, 0.010001675195752445, -0.06326596751672994, 0.03603620761298265, -0.00037339391542010465, -0.2967087155837897, -0.02469030133527795, -0.19851991815095849, -0.7309024304773231, -0.15088833803316556, 0.0919344297332283, -0.1164226831788205, -0.43421523498052433, 0.16608110825878328, -0.11295046121979913, 0.10289376867265775, 0.1676402826846479, 0.3296073552816717, 0.46353703399528257, 0.019428562380568663, 0.10960670394538834, 0.25922475039746806, 0.40341422692774837, 0.034764344688546736, -0.006707410452786459, -0.00683835584691105, -0.011900435955868465, -0.0024738231453371035, -0.011569471482051728, -0.01421182961722205, -0.08628366286358179, -0.15845215329184242, -0.29183497208856846, -0.2752757068132577, -0.37570540782630557, -0.5036811438675394, -0.4180975890553164, -0.06529843403334722, 0.06058721839812615, -0.1919964982681326, -0.05707236696276843, 0.2077440557179, 0.12853035049080969, 0.13809330489776975, 0.22227718415995332, 0.32252052951604765, 0.23868797807816688, 0.2684513474203912, 0.33655485720291883, 0.21702442040008268, 0.18680304490884897, -0.0910937887552542, -0.019765501050758843, 0.06216135967895747, -0.004670737688608168, -0.015146113538394143, -0.012508446259618949, -0.010456952481567186, -0.20568965559825866, -0.33945944369014847, -0.29400013077693044, -0.16213382400464207, -0.097947100222391, -0.09589952341414995, 0.007949546854606191, -0.14945652575391383, -0.32623239672118265, 0.021266669250046732, 0.11634441473758807, -0.15546200946201566, 0.023169605990169515, 0.3579750879298661, 0.03126018426776559, 0.12087499087225662, 0.38799641011469765, 0.4132299180265959, 0.1079612475453374, -0.07714802373964469, 0.20158493315180506, 0.08217667381565923, -0.058683355852812404, 0.004738869486353121, -0.007045100916066983, 0.025870408678167915, -0.0031588762245182912, -0.012466695088796659, -0.20110052778220203, -0.2796847903004468, -0.1988184086910865, -0.103502391321277, -0.34270056521470377, -0.4471135796319703, -0.07745217621926245, -0.0670410468747821, 0.2028255336737867, -0.03987316325003477, 0.21117916668839673, 0.044226488986658964, -0.14192579770020716, -0.04182201018167834, -0.14236608039549264, 0.1488768108940315, 0.13427682672637553, 0.27541099559085164, 0.061899111396814734, 0.15688177635412764, 0.2851014154958491, 0.1522046474792701, -0.021872471606556504, 0.027884506637160886, -0.006813330461081149, -0.0013250777364239986, 0.0088901336543306, -0.0060018615474345905, -0.10641271227904729, -0.22296165282108504, -0.21172199101480862, -0.2191301236630076, -0.07612110753046716, -0.024495456056215635, 0.1439439600753957, 0.06186457331023496, 0.09885379577317097, 0.2525201259184267, 0.18093472018539727, -0.20552554763760572, -0.31561206423288324, -0.22059641536118496, 0.21989005308592807, -0.17281154678180605, -0.38477880484586896, -0.03843703122596056, -0.27686239270392765, -0.17002682745288217, 0.04468522191266584, 0.1427511709577992, -0.002999695832950282, 0.054108091342065984, 0.010104157135113857, 0.0011068818307543363, 0.0037948495494384026, 0.006322170090640626, -0.07610465774924736, -0.06848008562186728, -0.19772625840680813, -0.28300094420162775, -0.31819281614170597, -0.2614414536279639, 0.18389175205516564, 0.11910478454251006, 0.3807778816478727, 0.34154600217074843, -0.1864776489707975, -0.4620721421231341, -0.2024831627025363, -0.23998163521033247, -0.08096891681306796, -0.8207571165684022, -0.7266287407662344, -0.32083480562204664, -0.3728821230472563, -0.44592996432386917, -0.1674381337776979, 0.03661514096056786, -0.043749485800969996, 0.0003077567507858415, -2.4404516935804247e-05, -0.005560217837333723, 0.019550690595437348, -0.001973166978282053, -0.10309254793238774, -0.2431285928417892, -0.36930787969066803, -0.4218998235905096, -0.2084580923885114, -0.2556312725302112, 0.024495372045979447, 0.2116024467686759, 0.28949348904080635, 0.34215165558050414, -0.0021981656921272723, -0.08398100049490016, -0.054238708954269056, -0.6060940085854118, -0.27736231217418583, -0.5670649680140833, -0.4505526882713237, -0.495361870727812, -0.3615236420789595, -0.36582323322660004, -0.12282402582062256, -0.0818922737284141, -0.14527549754893376, 0.0036083209234219252, 0.005734981266692625, 0.00996261030311375, -0.009336946855373071, -0.01921494828898334, -0.1600414822516988, -0.2839775183182819, -0.3396066459350893, -0.20562445037426905, -0.2362186937240374, -0.14807600559131845, 0.14868978931905788, 0.1743361132791867, -0.19698027276981334, 0.2319186792692576, 0.06683458994652527, -0.1318547272934008, -0.47660730518326194, -0.2585108608567079, -0.12066734893132641, -0.40508610979631493, -0.5165849580335287, -0.2971946447568083, -0.2769842867160087, -0.31401073372175103, -0.1995880956315902, -0.03495502454541161, -0.022148840526400208, 0.005136401114142726, 0.002749559647386141, -0.011282927564332731, 0.0031228992266461443, 0.0033964366510896658, -0.17946272091474183, -0.15399891067318403, 0.06808802827066618, 0.035489645572301685, 0.10729821097480127, 0.09030324247001027, 0.0322834913931815, -0.09597685023213333, -0.25267677070526356, -0.2109792075968084, 0.033912196442211794, 0.19531290242517538, -0.00422677296570463, 0.20612470169105018, -0.008153611583439229, -0.39954228190720525, -0.38324268802172795, -0.27351911985535676, -0.42111272158275725, -0.20630238351864968, -0.220791621645855, 0.035619972779320615, 0.011477080833121014, 0.008250431663083969, 0.008649687196549752, -0.007547805746308933, 0.006960532166578914, -0.059640700954862465, -0.2215199008844157, -0.09978456023085934, 0.18434370834631825, 0.35956226789077156, 0.24896490081762446, -0.08277233165839468, 0.2994424640716958, -0.045481420564042925, 0.06655689720076079, 0.031742609542489614, 0.17521089096852954, -0.07624713054157532, -0.07640173384182249, -0.07373245898249703, -0.19029193203607705, -0.3775646640793466, -0.36391665403361145, -0.35762028161325277, -0.3468657037135031, -0.26965473387513206, -0.22530596866277974, -0.06237744103149291, 0.028556049853767005, 0.014011358495408128, -0.012724134872471883, 0.0007846393171492761, -0.001433016312101187, -0.06827931106112028, -0.0796122468301696, -0.014306123879401344, 0.3364809438515271, 0.1353290108352327, -0.3614643208532307, -0.354113786503319, -0.3373057566054583, -0.48568958033008575, -0.05541000258055731, -0.19816992561037022, -0.013031629835701237, -0.14019212062949246, 0.015299850280456766, -0.13142692759528027, 0.03987798368640788, -0.3231570056236899, -0.3000708436922434, -0.12507004456555704, -0.1579561141414069, -0.22000487565475554, -0.12409014886512049, 0.006240208119069003, -0.02139040719066591, 0.0016733000571480083, 0.004847006784118222, 0.003163871811895513, -0.002668709117067365, -0.026795341227785704, 0.044078556698152783, 0.09742324450125156, -0.032431607062859136, -0.18570330841253857, -0.21899419849457782, -0.0397121437542056, -0.09430433576291755, -0.3462445881336083, -0.1560987843236106, -0.03141308058049795, 0.008771088499248536, -0.110057655300115, 0.041503102366002805, -0.11690588708965904, -0.1598428952717001, 0.022598296747066055, -0.23084030174403783, -0.09805779475576462, -0.1953525881399759, -0.09608282236692094, 0.008311227242949921, 0.004568993924615568, -0.006312587986879531, 0.01223806741087013, 0.001323934296970142, -0.00023359411965305005, 0.011524147343592077, -0.0072540533740799865, 0.006275314945782267, -0.07741967096609885, -0.09395476790519872, -0.028654486003173826, 0.041704298986811224, 0.06633405155140962, 0.07630763093244279, 0.10919769730724714, 0.059836523949365505, -0.19093569979328415, 0.09344556450312724, -0.14996361355372553, -0.20650296379381386, -0.14035035633344006, -0.1084996907776676, -0.08291444290034336, -0.13457295493639737, -0.023151081871827083, -0.08713165593114457, -0.060464052392956984, -0.03068182292254329, -0.00638273237281301, 0.009554202406237958, -0.01093657236919736, 0.0001454460133126747, -0.012480494715737598, -0.006185698391594287, 0.006294026634367975, -0.003405687714243001, 0.0032338734939364833, -0.004850095302524566, -0.0044406548181964225, -0.04944001936156071, -0.03199929058533866, 0.00478633541818298, 0.13160810329107725, 0.011691960920066705, -0.05302786576320651, 0.029125411281683788, -0.032822765333730464, -0.0787166679809471, -0.04035291338368855, -0.0291001182297388, -0.11851463808068197, 0.012842467221790728, -0.0012160148668822533, -0.006929976316842968, -0.033921269653015916, -0.0004490014951996673, 0.004620903452231118, -0.009131991269380217, 0.00017772597149309078, -0.006307354439330984], [0.011163372831889904, 0.012861714495702758, -0.004920980352531007, -0.0013799069456287005, -0.005504470049817281, -0.00165804961489171, 0.0013747906668483644, 0.006332778190629662, 0.0068167474456962696, -0.0027636726372920915, 0.0023797365282640735, 0.011928622259923189, 0.004864451836361051, 0.006407481796640765, 0.0010951275332214665, -0.0071256510400950004, 0.0036964292377079447, 0.0034217585316228807, -0.004368107520535018, -0.006938156204307061, 0.003054966301385423, -0.0027057286946970604, -0.012122769156735096, 0.011851323728157746, 0.021796665014753993, 0.0050650128018662815, -0.007465490481030905, -0.017403130035313276, -0.007078615864564281, -0.0029818344510900256, -0.0036741466491533054, -0.011612863468546895, 0.005377313920604364, -0.00653547073263311, -0.009277562003933868, 0.007717910690476818, 0.020916823264938475, 0.0033632233599657194, 0.015385156635557529, 0.011748533863824613, 0.019620703399396026, 0.020468362299800744, 0.003929455839195708, -0.0023562925698600804, -0.003888506816990426, 0.0010200478667917016, 0.0173694074685485, -0.0002615198200204813, 0.024829619653432437, 0.03836535984123443, 0.020769156439336727, -0.01060639615218127, -0.007219497672580379, -0.005375901537994369, 0.015252471330482461, 0.007990636637686208, -0.0026751553323637162, -0.008508395900554246, 0.0031831915820281975, 0.012983700680483845, -0.003797642306724708, 0.01162923086136629, 0.00502737941953964, 0.03842906421687026, 0.05757857422206074, 0.05314552928082269, 0.045802694247569484, 0.03061790238883728, 0.0682087518783319, 0.07497519784346096, 0.009826681530478148, -0.02780548532482228, 0.024300865783398972, 0.0747776768894336, 0.1581866521767893, 0.14025139661754363, 0.03711032068299273, -0.005688758884570846, 0.010527471608971795, 0.02088849158759169, 0.005665844050171863, 0.0005700880176594988, 0.007276273245264834, -0.001346033119620154, -0.005386799892842064, -0.010962613448702219, 0.006899884883962945, 0.0035826552097876123, -0.005178392932068367, 0.006061164571205165, 0.02801431606973008, 0.04063706617226464, 0.08069371058528739, 0.06494725566318141, 0.052097724825016276, 0.037326475661970365, 0.06787990688327726, 0.13895145373625747, 0.08358713380277512, 0.06779573558933051, -0.05105457931187594, -0.10212739135885089, 0.07086502056651361, 0.15961925275351446, -0.06241589968844141, -0.029604216762638285, -0.01349039339450818, 0.009425951643285614, 0.01762315574554598, 0.005150929580357129, 0.01623409090939701, -0.00698794266876975, 0.0025956782091310564, 0.003850704983569272, -0.003420030550147241, 0.015360922880316949, -0.004722909593554361, -0.05997200758675203, -0.05478823403931095, -0.11763669857883938, -0.08152601062826728, -0.03505149767639524, 0.06621550650260076, -0.01708404619266771, -0.14552303900485972, -0.09763527544518118, -0.1323473007075059, 0.058383726418026756, -0.003639854850930653, 0.09553923948203573, 0.4272386151672205, 0.3691354027566565, 0.10664025739392426, 0.10218884222838627, 0.09622182585317608, 0.04803128822016651, -0.006084924040646756, 0.0005713498714914405, 0.004621180727299319, 0.00420219390572611, 0.0038891442645564546, 0.0017327407294997754, -0.01117338495802529, -0.027808334727153994, -0.13558676105618084, -0.13058887655451104, -0.07491621053616315, -0.03986508469497205, -0.0034399036024169855, 0.010954602270771227, 0.17779792821345805, 0.12354801889883668, 0.04088728157718514, 0.06790413944411926, -0.18803396093558933, -0.08252590464197168, -0.051942011067500966, 0.06659790344481842, 0.12627490567740737, -0.0021190754443849956, 0.04275968106763907, 0.21913752101107808, 0.26057299223777775, 0.14837345608118085, -0.021711296736665216, -0.04806721258200092, -0.02335973273767192, 0.00040506486258834457, -0.01858569026750984, 0.012719998023118675, 0.026836015158743856, -0.0524204476683147, -0.11284534560405202, 0.07714408552164925, -0.1826181431548177, 0.15987969365829194, 0.09479844673993265, -0.1608473916360752, 0.0575147562070025, 0.18267989229765802, -0.03619755627468959, -0.0634756124294883, 0.01618897600846532, -0.026477438935735023, 0.10101079842181962, -0.011947236542024696, 0.09949958371661609, 0.20313977147668913, -0.080409927802426, 0.13238748396026437, 0.1010617367159662, 0.15512607987991156, 0.22783592450220494, 0.10484429448273737, 0.008092014685131097, -0.008017138628308045, 0.004816428200633701, -0.0036007426783865215, 0.0003149738265142293, -0.061871154640560484, -0.13900795577218153, -0.1091906280050734, -0.14222030953567108, 0.19579557570388095, -0.03350668031880288, 0.046724866446684686, 0.26409937382604975, 0.37273740365722774, 0.29632703929847787, -0.10619225721503596, -0.10438211778584142, 0.006031039366560023, 0.12451084114448256, 0.1496059439743478, -4.661956081239923e-05, 0.18511866121092838, 0.11563224562472849, 0.1885198678409345, -0.07448050091994723, 0.02116724214311802, 0.3339311130456018, 0.08177735611600034, 0.009006736056679104, -0.006893229685749104, -0.0029720143919833566, 0.006281325546465033, -0.0035808532425741836, -0.019899832355853953, -0.16276656147931495, -0.13251710695459323, -0.08944905607114613, -0.192125861211752, -0.09246123933860032, 0.03903190086853095, -0.28360849425409346, 0.2684879999613327, 0.2800681406045548, -0.2176076764347115, -0.01520699979601169, 0.241684590081121, -0.035760327359057716, -0.17845055363734635, -0.11624425634001917, -0.14503188578639362, -0.0636217848176716, -0.20094636756482093, -0.10622020847424418, -0.1571789576236801, 0.21844611532001187, 0.025001356792079984, 0.0052174933190005, 0.007452751648215451, -0.006672369308290216, -0.0034394055194172054, 0.013678230163524001, 0.011560911391824209, -0.1275145004438352, -0.14584978099784576, -0.1290892900754652, 0.003937847971896008, 0.05784650331515058, 0.01666051901090241, -0.09834903534358393, 0.3485811923479218, 0.4030072479968552, -0.2136960860968557, -0.4191312339547856, -0.26347235075787423, -0.21018851801450741, -0.2941708981784652, -0.16235895687295634, -0.5266252482994488, -0.5105198208572514, -0.6464244806895885, -0.4770420960347557, -0.3754972692427404, -0.06902336330079023, -0.034084884540107795, -0.0062178831709178446, 0.00194948479644183, 0.0006286753762016909, 0.003911940621826219, 0.012557259381081778, 0.07069144115552937, -0.022832845121756186, 0.10177395164002195, -0.07898964554997319, 0.08198404149217835, 0.0602733533007537, 0.19871976890450277, 0.014169927002978736, 0.29961541144655834, 0.18729652591511678, -0.48189689609804565, -0.5982706627084846, -0.28303994719977293, -0.2669407274550176, -0.2341249425661871, -0.4560034314707105, -0.3633162514546502, -0.1456747700361132, -0.47071706253118434, -0.47257103628589264, -0.44712559455100115, -0.13350559862831707, -0.01352115145167206, -0.039702871385214486, 0.03538013289593765, 0.003753439843061298, 0.0010552143338073779, 0.014690325503481299, 0.03842675305115537, -0.03950385423837607, 0.1049003732027785, 0.03982504755219191, -0.036691763359966004, 0.0029295180187528143, 0.061835885516475314, 0.07958490964097865, 0.16018581333071355, 0.03424558992369782, -0.714133439610632, -0.6800231572303668, -0.1738901058131071, 0.24852373541227807, -0.06135212332221799, -0.11408893144536773, -0.04404684141123872, 0.254437890774994, -0.15626829455850474, -0.16442191792774782, -0.1362083793519198, -0.14086711862827947, -0.15464822666314407, -0.0844759139111548, -0.006284120285559906, 0.011256841829508653, 0.002040467140026384, 0.0084615145098487, 0.018469738815088947, 0.12750021910552334, 0.1546553405153653, 0.27560398515668577, 0.005663125109542651, 0.15457757417110018, 0.0738599410926256, 0.1950534605233687, 0.029991518124399073, -0.5001563488652241, -0.9077966382671873, -0.3710375813362167, -0.0018726719873540397, 0.20998257329094533, -0.037690494413254526, 0.17611744351816222, 0.23436162112633122, 0.45917216237086067, 0.06894958092725333, 0.3093440664288722, 0.28361300214204593, -0.04088433753164081, -0.14181901505417063, -0.029520625974558595, -0.0023910777186031025, -0.007848012645490812, 0.013960740087902893, 0.016150956907417333, -0.01438922837323728, 0.24574760053456637, 0.24926612361719355, 0.18315092527374086, 0.16642344034380302, 0.017853919133906035, -0.17736289365143632, 0.18120448321569885, -0.0906794623392329, -0.33972079069522826, -0.44929629315364533, -0.20809111811884903, -0.042014270633335196, -0.16908913258792832, -0.0034995052454227524, -0.25051949393258943, 0.1374990957042845, 0.015052051863732109, 0.12955017474449285, 0.2669514589226513, 0.36472861227981757, 0.04616991982126033, -0.04371872960862679, -0.059471070776520106, -0.005425601860229806, 0.00465835403922381, 0.023026613377877425, 0.023757906295671736, 0.004135336732941122, 0.26707700122348554, 0.2988208881771732, 0.1767359200124594, 0.26153267689442167, 0.1938400301190078, -0.05513391948137062, -0.032681577039847476, -0.3202577591738706, -0.4692326422316825, -0.45251931746034946, -0.07443568645473526, -0.09460068541569072, 0.1708973998492238, -0.012873989231022856, 0.19959787394132394, -0.032620561678887945, 0.2434711290598495, -0.010308112727163666, 0.26585078419801333, 0.24316763402861588, 0.14394086493974184, -0.030528893244446017, -0.05636928607468805, -0.0030388719770787507, -0.0006442402315945365, 0.0184124277341842, 0.030476402991373833, -0.037692416029353415, 0.1183948063163886, 0.14338941062060195, -0.14074966108527523, 0.28212290385788175, -0.1362515508619439, -0.34642042020690017, 0.050392228658053914, -0.25137004415301945, -0.2881779925325979, -0.15180990424741356, -0.18157145255162652, -0.10897031609901761, -0.19550190175861704, -0.1997951634150887, 0.11069340700703695, 0.16272614102653188, 0.22689594525452078, 0.39672022186545347, 0.12088937834013569, 0.2534625143205282, 0.03448116081468304, -0.058268457211747164, -0.030914690445486438, -0.008326143829154743, -0.0027222012293243495, 0.012982287977336925, 0.0059106956729423794, -0.008129083492231034, -0.09212619333021471, 0.09176361750506348, -0.041248375795975546, 0.1336636797178712, 0.08979214663678202, 0.012804867645216106, -0.08095016801489573, -0.10242217417582394, -0.24858477957273495, -0.13533998834926605, -0.0005733364857504228, -0.27710580595076195, -0.26984401581036793, -0.04597238290516094, 0.2250638690040657, 0.2351493470268889, 0.1224065076094566, 0.3427680889155363, 0.26116162351775696, 0.19131648237165577, 0.07603312785517886, -0.07614532730033029, -0.03902014825054741, 0.0010674171671641987, 0.009389359880892574, 0.005281050649598148, 0.008447933072886039, 0.04905074788219279, -0.2869513980202198, -0.032293651495297164, 0.16609089202316246, 0.42500635107825907, 0.2684445846945217, 0.27990141698880633, 0.21545321973279394, 0.16617478761921223, 0.017332745014110307, -0.11030064894436067, -0.1551494968037165, -0.6264637773705768, -0.301277145815643, 0.1497421193633577, 0.5731326488644516, 0.3092204357784652, 0.11550984959489632, 0.23552879153346618, -0.003729523374895646, -0.13937588995461397, 0.10783672978173006, -0.09966314014769972, -0.02962638326959701, -0.0186218296786607, 0.0008850251291820644, -0.001711149067792804, 0.004555349967605464, 0.07864767844688897, -0.20130549115625582, -0.0861239339416417, 0.018074839909422557, 0.06594881481374033, 0.06549255705614494, 0.25355618199715363, 0.18334307432988456, 0.02675065089420718, -0.05914252200620278, -0.3925093084661279, -0.4418130041062636, -0.498841771966967, 0.11766501601112098, 0.4664864644677668, 0.5205412018960882, 0.30467702007555103, 0.11257922171721023, 0.14693019203568497, -0.07473313747027178, -0.18991021118199752, 0.024079548801839667, -0.1201924191006171, -0.07647278897096972, -0.045824014210506026, 0.0008883234825722508, 0.009515815140861177, 0.11173909465373255, 0.22486358448351149, -0.1301420655126742, -0.04329683677052242, -0.06258032092381191, 0.06358483645197643, 0.1313847968721992, 0.03150726636093568, 0.08049818380146179, 0.2844567467237962, 0.07586654689678576, -0.38761170524593913, -0.38419888576512096, -0.3625104919371327, 0.4290757794737003, 0.5374479330953746, 0.3666868652158309, 0.07672069126892438, 0.27803620522914346, 0.22963133233812497, 0.013667179891373808, -0.17647480793170559, 0.031095808522541735, -0.03096921873991789, -0.02621555854178735, 0.0032518161821997044, -0.009038169933958805, 0.027335033948255257, 0.08113922940428415, 0.1370439706507105, 0.016219741406271852, 0.1831037127309731, -0.026937868423483356, -0.21416755245101804, -0.09378578866711643, 0.06259513128868313, -0.11962222544710487, -0.1171881812480503, -0.09946740535548558, -0.27259010528907635, -0.08911769038097207, 0.08525026166036218, 0.7686378004547508, 0.3486850836326712, 0.010346576699873893, 0.08885631083374196, 0.04919024684462152, 0.053335139991971474, -0.15747200143716966, -0.15938434516834823, 0.11792375541042086, 0.042985333364049534, -0.005064674297718797, 0.013406987691997517, -0.004317887488287077, 0.003819033296547423, -0.038842822105315665, -0.08087595185674601, -0.024881575087106568, 0.06279957767566771, -0.06445270814138176, 0.012207797216705202, 0.06269119438471053, -0.0672097641662626, 0.008163794490778517, -0.20183956364216138, -0.2802943986583133, -0.08629486501673979, 0.07767693524503912, 0.4607353403517902, 0.5558310619893073, 0.08407384577279481, -0.053630087894711485, 0.12339931345468517, 0.30862510664899956, 0.22563092211267982, 0.008071301052760644, -0.0045639815962287295, 0.16246794821703953, 0.07290184011972925, 0.0006295300441813429, 0.012499541833679127, -0.0065510674857677895, -0.004733916361229381, -0.051862978696290495, -0.06424332846696043, -0.20328179714311365, -0.1361975690449099, -0.2647833655237015, -0.2569405701087719, -0.25502594075810786, -0.3898534586646625, -0.4696035830435194, -0.2874768371739839, -0.18271227413823843, -0.16021654804469554, 0.2299965923816434, 0.25809299494825033, 0.3129970163306118, 0.1408336057516998, 0.20911165114871508, 0.17054902934617155, 0.06859693445392866, 0.09092079163515851, -0.1750584685114994, 0.00045360802329490906, -0.01923855866207767, -0.006707399636011115, -0.0018140458966503733, -0.00963049146062266, -0.0032299031352355668, -0.0017565471881828439, -0.005646592285039494, 0.011281361460378041, -0.1377390414463852, -0.03278623630350688, 0.057591680219682015, 0.001335621154295187, -0.23373099345078766, -0.42362704893924186, -0.05427184123630891, -0.062001984949545196, -0.16881547729978824, 0.10219813264820132, 0.4392993588105665, 0.5150116555092078, 0.40742721610885896, 0.20698772114694491, 0.01241672666966634, -0.05037736285398262, 0.08040993728567475, 0.0035636846848512, -0.10811960917164266, 0.00624804084625137, -0.0027390876669647836, -0.05569630210203008, 0.015572899043387272, -0.005052051124461264, 0.009502284549804337, 0.0029296975158151963, -0.012670568891745627, -0.010910173877690818, -0.010284640154220205, 0.03847597145676587, 0.03929836229556002, 0.011378351447408447, -0.03016501859929418, -0.04116414266043213, 0.08212226984449313, 0.12294761516710445, 0.04277358978363807, -0.003524703056506973, 0.056844738790291255, 0.33752318649056745, 0.2737037433919917, 0.426628366931258, 0.36277886625144723, 0.10337851142732421, 0.2881598913660909, 0.23306100894769854, 0.1244360476135809, 0.030817740387574483, -0.022424707844069455, -0.043959231945666165, -0.01621839199486741, -0.0202022283959213, 0.007831406225922611, -0.004617175935026578, -0.0039821387270849865, 0.0072052410328436595, 0.0006210213940243779, -0.016426425911688778, -0.04898966528897415, -0.09736499249790459, -0.08308007062309425, -0.07797204393511388, -0.20565008810243424, -0.07926652032973414, -0.024321001027080194, 0.07398504032431429, 0.09945685350606678, 0.0973369015574634, -0.02192932437255022, 0.035722622339880654, 0.1543671555335408, 0.15829738241264044, 0.0866016813784785, 0.18573443300866335, 0.15032238462026934, 0.06621175859005252, 0.040424698137707764, -0.004616923729648095, -0.010488264614053272, -0.005363155250614854, 0.001077794137242758, 0.016392640930886045, -9.360208348994063e-05, -0.003770113943870089, 0.001500633388655505, 0.016226934180548616, -0.002146337975150888, -0.011480912596920136, -0.015516421380676835, -0.020783400637673616, -0.016495551798317236, -0.020606651564804082, -0.007292260772621895, 0.0004483008023064522, 0.06888774066740593, 0.09109903425608734, 0.029539216802758454, -0.021804695163309813, 0.028980924449679625, 0.061352907935435914, 0.09490548293904447, 0.10445225271868935, 0.05869554581470798, 0.009775778225705268, -0.003624940883504432, -0.0017964685838521089, -0.007030106141737367, 0.02203909178783168, -0.005720430282437218, -0.006301993001948466, -0.012007879081244276, -0.002503592812387121, -0.0051667238313070785, -0.0037791726690645116, 0.013125156593993242, 0.007014121927048563, -0.006867591713327614, 0.005575249739397007, 0.007419826926041611, 0.005027997284873329, 0.010980684900040713, 0.00020765160756810688, -0.010724082073056767, -0.012769152370635601, -0.014983702083168031, -0.013040648494078023, -0.022421036293895337, 0.0026343282059563223, 0.0019382413596216533, 0.0007190895137079621, 0.012340564439701555, 0.0036109369945954766, -0.0010200695699690973, 0.015202444984686043, -0.007046582276014056, -0.025728368501831897], [-0.008765779271454116, -0.01244089556128161, 0.008654773659524474, -0.000970756986021553, -0.011702398147805156, -0.00425299706274016, 0.009581713753783276, -0.00809284416839483, 0.00545270359460387, -0.006086524001532817, 0.0019519082145714498, 0.008630164807887187, -0.021256937068352674, 0.005285747758826042, 0.0029373023665879724, 0.00728651239345559, -0.0028005024339914234, 0.0036107953148475425, -0.0017800581469773122, -0.009548190308730003, 0.00954957506503607, 0.0032941766342905695, 0.0014955003676006828, 0.018619568413236327, -0.005391855572186961, 0.014568221163898757, -0.007497943650797959, 0.01147954806511266, -0.003944715194683841, 0.020366238201576358, -0.0003850354768686402, -0.0029803333289649962, -0.0035257851965870635, 0.0016925058371174096, -0.01544290122971529, 0.0036924002004995655, 0.006167586190888578, -0.0034105993855132874, 0.0033929137528703798, -0.0035998040657919264, 0.0051776394476278865, -0.0030741071402614725, 0.0015410768846254852, 0.0037242203954645737, 0.013837043576895084, 0.010808084883279811, -0.0014982696356741032, 0.017820407384277922, 0.020778073122393274, -0.00022708169091983918, 0.016157866819047757, 0.00015799230414039123, 0.002007100973042915, 0.00030729720273817574, -0.010578177308305044, -0.0018365473337511031, -0.0011401295795947814, 0.0002376492775532177, -0.00834013447153694, 0.007920069698684317, 0.0006167596158906428, 0.008172009578759448, -0.005289355047778733, -0.016391057760757756, -0.0036551492145691935, 0.02139097585607116, 0.013172782967565527, 0.031078158894914013, 0.04943388472579966, 0.021257303822065546, 0.05241931583158682, 0.007948011786997519, 0.013746686392732799, 0.010769682359419521, -0.022326529735703888, -0.031046459755288847, -0.010282838184159999, 0.0010817530909981675, 0.0012914331275410069, -0.008661846584948533, -0.0033783607278204952, -8.201818571075098e-05, 0.01417301472323393, -0.008083376051887088, -0.0018459091082882303, 0.008913161177969624, 0.003373496631863609, -0.014681608981490969, -0.003218814259890023, -0.002280027042308174, -0.000935418251301687, -0.013518270206141053, -0.005568209663942469, 0.05925717535331156, 0.03676493730720023, -0.0133162030941615, -0.17398468100413184, -0.16699717267393102, -0.04072262729691273, -0.07223922908534623, 0.033227070105769134, -0.014689554336355723, -0.03410536098034519, -0.08472671941987682, -0.08362423993291061, -0.048147137939208384, 0.03580809717176372, 0.021314191497029785, -0.00674201272120251, 0.007941485536922786, 0.022102131971348454, -0.005699092523452652, -0.0023183036574699464, 0.002827362527921756, -0.009829020560511888, -0.020952280115968273, -0.02020644752167963, 0.016450822856286393, -0.023710135593210162, 0.006361896112639008, 0.04864634703326598, 0.11172054684951083, -0.1534104920075132, -0.23332764394828587, -0.12265046627336398, 0.08465669649202362, 0.16446025951176926, -0.31895638208667654, -0.17852623037157228, 0.0355726767080911, -0.001740299401148926, 0.02637575800729262, 0.15642328087499643, -0.0882119561420773, 0.014518594191812749, -0.09899056950445209, -0.1365416109200966, -0.05345986286957724, -0.012871357249822059, -0.014427508989456772, -0.004985786867287854, 0.0034954236579003315, -0.004393434199379069, -0.04575043739629705, -0.04900119226994527, -0.1625572864381279, -0.1881872357129873, -0.08646519207182962, -0.024738154320560715, 0.10817947520669596, 0.15515758717188224, 0.27622300075091616, 0.004875756302318943, -0.10167313093469726, 0.1081044627161974, 0.2157944050321761, 0.03270294870207568, 0.009293013341256456, 0.19416808952104095, -0.1323617539985659, -0.26769120063810975, 0.0028939658906493976, -0.14051482465695112, -0.20609232871992614, -0.13625425866402016, -0.08385064688838301, -0.00625987542925061, -0.00890885505294992, 0.006058755441455936, 0.004527539545594269, -0.0031754822107836703, -0.041194936144387996, -0.08605545162832313, -0.18144073950157166, -0.14757501881581933, -0.1084873902827592, -0.08884373058334383, -0.060285091454788636, -0.2614400649254721, -0.2605187942635305, 0.1096180738288505, -0.00745712555219669, -0.006248112210900397, -0.0063835917281644715, -0.023189614706604855, -0.037288000864401205, 0.067994181213914, 0.10231077522326043, -0.0880336706191815, 0.03523940237931496, 0.1017510914823438, 0.04003626545690064, -0.07884262045383408, -0.08502807395735452, -0.04365298308538405, -0.016824309730792096, 0.008627733658626556, 0.00221382542155662, 0.03138326537955663, -0.03251013337625982, -0.09303105625012976, 0.025835345072367722, -0.06573757816194828, -0.15700088471765017, -0.26089274426719206, -0.17489959162150773, -0.1044535137078503, 0.11219702968979271, -0.09874766031511668, 0.14634934818193457, -0.26749704693725707, 0.42312382251299, 0.09538514168160478, 0.1690456561043368, -0.0029257653367935742, 0.34426214230486535, -0.11808791544700553, 0.0638845706970578, 0.16922387467438638, 0.10962029349542546, -0.19371385597751423, -0.2896279233629059, -0.11977281754038539, -0.005122185226729295, -0.015637296233322284, 0.0025377632922526897, 0.03592414822237233, -0.05391098306961275, -0.053330724787384716, -0.08512159771011495, 0.040463094655080495, 0.09768370332091593, 0.09968522592405055, -0.07137159524943999, 0.023221007619772145, 0.014179396526423053, -0.37418539644148857, -0.0423466821456001, 0.04847452546962616, 0.2714233749797752, 0.343992724194993, 0.18382795358564122, 0.2648399064150719, 0.3021210656558239, 0.3138249682874828, 0.22090716587905707, -0.09375560210720914, 0.017711253077383443, -0.19798420605508124, -0.13189846159406207, -0.020580275565014614, -0.00924893759689971, -0.00370280059164713, -0.013763943574180206, -0.010603680975986948, -0.0888972262371629, -0.11971560629760997, -0.011779404420775956, -0.02943867672760198, -0.27368407308920745, -0.1078034301564821, -0.04051990790519712, -0.13086679416009822, -0.16203314022051682, -0.07548215143211144, -0.27463832452614334, -0.31675277613979097, -0.11426970047416535, -0.017492675771616294, -0.016123845702824133, 0.03356708330518912, 0.004271874100967251, 0.039801080634035785, 0.1000831567743064, 0.09625030261728607, 0.15205799102930262, -0.2036889917180421, -0.14085621316966546, -0.055127539351924895, -0.05868761374783918, 0.0020402750016762757, -0.014507977050072942, -0.0395430250922805, -0.11655100003077534, -0.04133340350030063, 0.09677024387978922, -0.013855226782047179, 0.1621482802406647, -0.0774409371715123, 0.16611046673810118, -0.2821254838671933, 0.007865988304949223, -0.05253061520011054, -0.6044499207194829, -0.08032749400593414, 0.12304284662103086, -0.06522864455556295, -0.2470680547213766, 0.007872093373754819, 0.04819806170252195, -0.12465237417619984, -0.10292307872756103, 0.1804468314030031, 0.14826552747551383, -0.12908920218275458, -0.1797730711745251, -0.10334886425850373, -0.024197231644651086, -0.012587395687795095, -0.0019309339846597597, -0.08523581051501691, -0.04897252101473053, 0.015619950582932376, 0.00023231170906626473, 0.08247023832285498, 0.2238824474768865, 0.3357225703489472, 0.23983555584656216, 0.13304029667635456, -0.18824582972761866, -0.03062183655266592, -0.22682684484405125, 0.09494980008375363, 0.05371088930105985, 0.2179571974161074, -0.02529089100543236, -0.08716004040267772, 0.19080304697626366, 0.15808529779672478, 0.12825505768488857, 0.10286353265386473, 0.16047112907702302, 0.02528525148185226, -0.06458898652243425, -0.07475384527299125, 0.0077177094044250105, 0.002338812601967198, -0.006155569901622872, -0.04210112815383651, 0.05987969300861449, 0.18808179227025454, -0.03423453148338013, 0.006352483263221035, -0.27873015676567875, 0.17848989017041125, -0.2153437146430985, -0.06411871364958367, -0.1734005535045489, -0.11682830343501394, -0.1831997778179766, 0.0546060228394787, 0.3261340469536918, 0.1583893770330388, 0.03028065971906129, 0.03803371732447642, 0.07058158935073762, 0.06258177943899983, 0.3078911777495792, 0.1363018623314722, 0.15115431355360265, 0.35246855123858944, 0.06433890779720075, -0.024593240693387, -0.003607683536489009, 0.011267000578351873, 0.006434017537851549, -0.01878177204499042, 0.06291860277323584, 0.2384053196387043, 0.02638967013242906, -0.05940664781428373, 0.016374287249814132, 0.05586471534855961, 0.07927646727011174, 0.0004920544052389564, 0.05014868650229513, -0.020246162523918185, 0.27382917640574234, -0.16001018999160477, 0.22189915270372598, 0.25432060695854375, 0.37628715131263507, 0.3285499297814015, 0.24404766067520614, -0.19308120345504817, 0.09119212829943256, 0.24733226928535723, 0.03398352091509576, 0.2533694280534834, 0.10503408295004883, -0.01358169761245968, -0.0015782317077564546, -0.014946209427759186, 3.6768746962529376e-07, -0.027128529153990943, -0.007994196534216708, 0.172364431423547, 0.1691840923935853, -0.04973471348717045, 0.12785101922327255, -0.3043018959170262, -0.30201088065853476, -0.032250713043872205, 0.12020406574523591, 0.1716136521520781, 0.09359109961721343, 0.08080824112788433, -0.19112684244136044, 0.08564679380524261, 0.19418469786514408, 0.15462449804692316, 0.4537483989876746, 0.06882643689852866, 0.0731539053438617, -0.008597302738834012, -0.2073177832191579, 0.23131342472846247, 0.1396802248804618, -0.007742779376028728, 0.010424766262212212, 0.0076663133362080416, 0.003395586217324176, 0.0021635436161957992, -0.029907279905601963, -0.036099541527376766, -0.1192773210229489, -0.3128713347817564, -0.09365088757470584, -0.20116540601524074, -0.3428350299137129, 0.03936753959908907, 0.13598757990151, 0.26510429660212365, 0.07914704775296628, -0.08800325205543928, -0.14982000972833182, -0.15647582341721727, 0.038200618851566316, 0.17397356240647757, 0.10623854122180793, 0.19419097625302847, -0.03745539627376714, -0.022482434422462987, -0.23121050322126738, -0.02083311561371058, 0.10654100558389829, -0.0017055099122461838, -0.005007219639568536, 0.0036107383314720265, -0.005863265712053318, -0.03981719058263675, -0.05176972106433782, 0.005203009661495221, 0.017719446389053616, 0.1436570981876541, 0.170711010993614, -0.18406037867469938, -0.37408216040838355, -0.22542695282703654, 0.10899463003884333, 0.08456600037731953, -0.027616892655954683, 0.08509069063170147, 0.07914254241619047, 0.3731499679347074, 0.24638408163468065, 0.14780702314784264, -0.2217860042723004, 0.18556604716444838, -0.14493207977280698, 0.0621248065874685, -0.14355713635031106, -0.23364821845711922, 0.0705268713515847, -0.04268890005824716, -0.013553308694567227, -0.0029239928990270705, -0.011667561308959068, -0.034909990093357664, -0.020219215326797338, 0.3081294287238648, 0.3653170929327584, 0.42334440390976885, 0.3196439231935044, 0.15123647457006573, -0.1842735623345089, -0.5160176150329967, -0.021920103747018135, -0.09913579141791073, 0.1695548211474333, -0.09089783113186885, 0.12330364619330178, 0.6031029543844038, 0.05670114592303251, 0.23766508567118416, 0.02984099373279927, 0.06475546791830046, -0.07653148093790796, 0.16391384292295486, -0.15165415608782518, -0.13056793777398215, 0.04622797941943986, -0.011469675637124145, 0.005260487187332541, -0.0002853409992791095, -0.004884924855304379, -0.030912814832970557, 0.004927003049634442, 0.37252271596784153, 0.7551839106139979, 0.6339169532870411, 0.587072581459137, 1.2334135203015848, 1.114270349315655, 0.672980157579256, 0.47756356605833133, 0.5902737528899422, 0.5971444631514462, 0.2449385781130478, 0.02706935817725289, 0.1024173179145885, -0.032604953965718664, 0.31910555363873383, 0.17529659640984535, -0.22134896738652182, -0.219930880322391, 0.1661246484935472, 0.07797503256780547, 0.02967536191630511, 0.02635953014105682, 0.017839154540225617, 0.011002084242929, 0.0013781772928815805, -0.0018721886375444642, -0.010966353011316316, -0.0014780635419298037, 0.25976550545732585, 0.8065360877084458, 0.7689047549743032, 0.6890707339508114, 1.1682363165055096, 1.4164634336498299, 1.4941316741750887, 1.1015255859343271, 0.9417793698105275, 0.566036013572613, 0.04559827890891659, -0.33331098947668364, -0.3083614417420587, -0.06340888008186146, 0.09215828561134404, 0.018976199781760943, -0.05138674513287758, 0.1285677829701793, 0.17192952859176086, -0.08830730933261387, -0.05426671807574949, -0.034539669323204625, 0.0027832619076769024, 0.013447574181632107, 0.00612721303429518, -0.0128817193899388, 0.00853060258376769, -0.04701679253364485, 0.16601954203336353, 0.616151949351144, 0.677120727968155, 0.2688518300652766, 0.32623478929497524, 0.2654563720494385, 0.6989121184676683, 0.5401268418681366, 0.3168248586236668, 0.1170655660147004, 0.1259334758722831, 0.00476748175652854, 0.11148329531539221, -0.3475215364684622, -0.24581764165476636, -0.2537672212152771, 0.039449162712337844, 0.06858713657360452, -0.27111133486800526, -0.3054721212603853, -0.026231647028738196, 0.014789670077110129, -0.0005365165918962382, 0.004470410699532369, 0.008804342299169925, 0.010799937634948131, -0.007305442323722788, -0.10891250211115586, -0.10289328512457337, 0.12213712255398862, 0.06295691827878892, -0.01662656753757247, -0.3283881182172587, -0.3033102447381876, -0.25564471472008876, -0.3792301269783726, -0.39677338587865824, -0.22049573195091446, -0.1744806070604877, -0.26067673661429175, -0.11463540755884677, -0.12473559424545465, -0.42131526181511736, -0.29647326978166816, -0.09216319543312053, -0.14235666408023084, -0.1884708300679591, -0.17215058888781712, 0.06987057021839678, -0.004006712886395919, -0.0003236117766816013, -0.006075999016064061, 0.00023422040696153645, 0.0067042627323241726, -0.009589683714906627, -0.08338810928752668, -0.2350263412627719, -0.222673948739448, -0.25694171084408407, -0.2985470835077529, -0.32174083732736636, -0.4899933896951099, -0.3086209073928578, -0.23497000992027406, -0.26634606402483396, 0.09427999536675546, 0.1180628953782283, -0.1010197450296544, 0.05931590992629709, 0.08284526537415413, -0.31148790761782674, -0.08992059972488811, -0.276321282522381, -0.05600425144491227, -0.1605702617915799, -0.1262712060280466, -0.04201337674548642, 0.04782048045220936, -0.0021533403842650066, -0.01575360907052201, -0.0025705173670101267, -0.004104940145955855, -0.0103684808037286, -0.08825981837771416, -0.2989620598890067, -0.3004096386226245, -0.45141619757987334, -0.44422925720621487, -0.09671210521056399, -0.3667841360997159, 0.0035971073678615203, -0.027710424684012146, 0.05416494250448172, -0.020379564911769912, -0.018781123988753784, -0.21057961630079536, 0.031202048056856498, 0.038529363758780424, 0.15657739983871527, 0.2565751629710305, 0.0009404223070628358, 0.20522559038384758, 0.017081728425031747, -0.009449098104713132, -0.04600763643247948, 0.02865434529160915, -0.006643272137473441, -0.014709871093285335, -0.005815913641536373, -0.008391242008184908, -0.001049144915092242, -0.09120368826149772, -0.21355101327852366, -0.3549693732391372, -0.5997511660231466, -0.6038714217211378, -0.39944595051447923, -0.4681472933927128, -0.3093788966912901, -0.12345630628381116, 0.02305508002003613, -0.1542299614157411, -0.07314122908677463, 0.040182656734644016, 0.09511458329415168, -0.14476875761268523, 0.08741966744320326, 0.2740892545869519, 0.21624102432687403, 0.0711579569500366, 0.008860789608967601, -0.08962571439266316, -0.03942047454835119, 0.02044295811325161, 0.01638026416282151, -0.004995478964434206, 0.0013001049468423912, -0.001351264616717879, 7.563444446500388e-05, 0.017396305616009775, -0.048417999978988754, -0.14802355061116604, -0.18374375040030955, -0.28474311205565866, -0.2627695389859446, -0.41414317935464523, -0.31251889425504115, -0.44530544561720586, -0.5707474708980013, -0.4690403004865505, -0.11262566695979957, -0.07991089179529226, -0.02131489325748243, -0.002007450313039176, 0.09252819352455666, -0.16653433316440852, 0.0052628832033415245, -0.035942819001078284, -0.0613856417321746, -0.11096436672215661, -0.08147044906421932, 0.0049040501193584295, 0.0030025645942071775, -0.002557430499085128, 0.01638389172960307, -0.0005598032184885948, -0.007093451290900512, 0.02205847114027654, -0.00311734130448273, -0.046792160674584936, -0.009769511970465447, -0.02392157841010209, 0.017039373078616905, 0.024251236019018185, -0.1371636694354553, -0.15815293598682442, -0.03724849942589002, -0.10776271803743229, -0.09898782455375793, -0.19997257315713854, -0.20485114494819687, -0.10505900460072207, -0.0778809934166937, -0.19673333206502236, -0.18166195522917092, -0.1428679282414188, -0.048472470461606035, 0.004747337902883907, 0.002762028094765368, 0.0028235135741938797, -0.004242925807672655, -0.0023648053274989626, 0.0006919070714864088, -0.014262218933365082, -0.015127232073524578, -0.001248884357160682, -0.010414896695633292, -0.004414609132779111, 0.0026748454381720545, -0.0032618779425886753, -0.023806565335252675, -0.019526042847761424, 0.007042806383471418, 0.014692243802846911, 0.0034576966189716262, -0.024599075711099178, -0.014850885748308475, 0.04038727013653853, 0.004764586972660872, 0.00558777538894812, 0.038163324794536414, 0.006778213234696828, 0.0006799788205838956, -0.020896859774218336, -0.010419261057526271, -0.010520774273065506, -0.010307076324523275, 0.004418630452652506, 0.002898459156623146, 0.0013999805117572246], [-0.00260073884225684, -0.027573015767271537, 0.0020409352659469453, -0.0061891980675958065, 0.006622120874817816, -0.0050184245395031605, 0.018225837852811674, -0.009753135088937196, -0.006599759400507672, 0.009353173231909106, 0.009872682851923161, -0.0017358303468052263, -0.0016817324970113548, -0.002020167564546654, 0.0009690072096074872, 0.007547354105544047, -0.010130028913263697, -0.005997236050229727, -0.013304487700040033, 0.013490908591749116, -0.002176942892015551, 0.0011542780028249424, 0.006542406729618648, 0.0010915325722887538, 0.00887517528119242, -0.0014816341549196462, 0.003485798367732804, 0.0048905478966268755, -0.01374252875341185, -0.005007051194112546, -0.002710984314627661, -0.0066751685591739315, -0.008188635337367144, -0.0032836173754933274, -0.015492850085856071, -0.012863803578673833, -0.025253288481156502, -0.0040104830763032775, -0.013629744731442565, -0.03569994162861231, -0.03375669095161241, -0.022467512252078197, -0.008716106178750144, -0.026189526842900154, -0.02442620738028874, -0.032738865965428285, -0.06690508613241859, -0.03540478008062435, -0.06096814570437219, -0.029484503779092487, -0.02412115946746873, -0.012707590624517807, 0.0036090546548600026, 0.017437073543567924, -0.003926381995016204, 0.006754951447940233, -0.006164172573713312, -0.0031293840211446145, -0.0003666558998036283, -0.019207100333023027, -0.0017391417164947633, 0.012669888922829902, -0.00973528895646787, -0.04040544571632857, -0.060887368364426465, -0.04230244255163685, -0.05359565278212926, -0.05420673577921631, -0.024980768416041483, 0.023266623013051758, -0.012227073551009169, -0.10438424054715459, -0.08570376617191873, -0.06359235610155449, -0.09476755062336877, -0.09665406013265972, -0.03202146710351125, -0.04439798678430104, -0.03668258369562367, -0.002803688165470337, 0.07255826580282712, 0.04270818275699617, -0.009980544685373016, -0.0035189894572644166, -0.0021323148234746745, 0.005678110300436604, 0.006042969499793932, -0.00201731340010186, -0.005720760189815377, -0.006562986153488177, -0.03980269406380424, -0.021190349635656646, -0.034634040156969845, -0.08022486074483798, -0.0947303208767742, -0.13067349290599078, 0.08941314882547274, -0.0050410830761828205, -0.1473796942515568, -0.006428401937232759, -0.09394174309993075, -0.08490455879815331, -0.029874794917166866, -0.02881146164295992, 0.12037647351623207, -0.04266163911949279, -0.12227612820559702, -0.09422082054570673, 0.03564320929749519, 0.031933691169457955, -0.00043903985827715, 0.009290007694774687, -0.0006578223465751612, -0.0016170080588602624, 0.005636509970042594, -0.012203714607621288, -0.021006618296338504, 0.015636214049662055, 0.05243177241486787, -0.014804094157082729, -0.05511092148191116, -0.10105610370171252, -0.00023790854289146044, -0.19625948287406922, 0.023538313729277015, -0.044624939257107296, 0.12121562625531947, 0.23546246221519848, 0.11754503433017306, 0.1276328065600056, 0.11519979892007802, 0.017842304822892945, -0.002251034153137662, -0.06333400505617644, -0.18893894623896176, -0.14338435440908331, 0.03446127475376977, 0.07849816785183562, -0.021199449226516065, -0.016660654909138883, 0.009344401124202342, 0.0002496397663259021, -0.01415401400864934, -0.004095979538548812, -0.0015549180781372826, 0.07841587756389409, -0.016921729759592108, 0.09714462424205084, 0.1264965747476964, 0.06388060317647386, 0.1121611855199715, 0.15151498691241966, 0.38581609844703924, -0.0025639729141088445, 0.04936493281397417, 0.12067835949640243, 0.21471744789192254, -0.2188909229901974, -0.08227384333978652, -0.01660922643493259, 0.19194561445920189, 0.23812755560965151, 0.044089115225759784, 0.009663471873862272, 0.005406807378081776, -0.026293261785194776, -0.07221724262607665, -0.034755212245358415, 0.001723441124205756, -0.0020882404807243886, -0.015431482069157305, -0.022252214122042535, 0.031161407630865428, 0.06189803646372244, 0.10855940801289543, -0.026489472691697713, -0.08191893132290133, -0.08848987837251199, -0.03396472459291494, -0.14617251206463233, 0.07057434796745, -0.14944711911511477, -0.024946834799137018, -0.16684856975285953, -0.23257085528683338, -0.09721814272080256, 0.03338465144097091, 0.042629879199285285, 0.24132654956178268, -0.032804386957798, -0.18254519506048617, -0.02618080740261422, 0.09714527281287035, 0.016029446159804655, 0.027404883590792645, -0.026625755417724824, -0.007270669107678143, 0.011688201814262424, -0.007498339255249287, 0.03852842821127498, 0.07331567213751332, 0.05873089197405993, 0.01743922844197325, -0.05226398814693794, 0.009502449021944965, -0.04679516348072177, -0.36357944307680035, -0.43845133907920486, -0.10897050821193587, -0.17678153736172803, 0.1535891131760085, -0.30082296870106734, -0.0969724725869291, -0.24843753715868228, -0.08459559017669588, -0.14302844294547795, -0.068026200800327, -0.019917417189705827, 0.049429760081312155, -0.10623185535967729, -0.0582486948371173, 0.00944266046096436, -0.010462783281809135, -0.007487447305362423, -0.00014538673019376112, 0.006814731835233118, -0.0277128800726199, 0.04575186180400246, 0.09533222743820208, 0.08590000201045295, -0.06490638598526288, 0.02451749357917391, 0.00573841173950892, -0.1912498937461432, -0.14793561270227043, -0.2402670861679738, -0.1893026719791465, -0.1371427434327175, 0.031552695663554536, -0.027771816451676055, -0.5372879583116094, -0.20839846600077333, -0.06553697312396592, 0.003941569170623511, 0.057989652647706995, 0.012836959921912104, 0.22205430749444255, 0.20420236282273974, -0.019176113840858038, 0.038579785222716066, 0.034362108711443295, 0.00235346936911546, 0.007984880380107515, 0.00456594248514923, -0.010448650986856923, 0.06588742190115285, 0.20643399745118768, 0.3468039732680984, 0.16957068773629427, 0.14889862989764216, 0.19100595163880543, 0.1943184511831656, -0.09036465843325699, 0.023082973430851576, 0.10466468295042498, 0.3245953422280171, 0.22472747135602036, 0.0751909877551737, 0.08675139231812946, 0.2088021989101495, 0.034136253797608054, -0.11482993264833216, -0.3234902745423857, 0.13623796105634894, 0.0855312202200304, 0.07673220373698073, -0.024415642688279, 0.010072588154987534, 0.10718569261162238, 0.07443003533553495, 0.0029705956080203675, -0.009785864343263399, -0.0015787936882176257, -0.010704872825419856, 0.10565208084602097, 0.290555961679607, 0.2842894961435509, 0.12124663131407576, 0.25337344113306365, 0.06725567522527409, 0.15747859027992428, 0.11394405552757048, 0.1407349398138998, 0.617641704415134, 0.5736893261198138, 0.010638261357285836, -0.16748073662174345, 0.1046440111263996, 0.1932895534768153, -0.04946783766358278, -0.20267091191174635, 0.18282259305811382, 0.07659084712439125, 0.020225358147285644, -0.010568479070361451, 0.15952773958194755, 0.11351030047666466, 0.012803249063777984, 0.012017711050787699, 0.0001737035814806094, 0.023776198025039507, -0.020696107896345652, 0.24430186070830798, 0.39474127989875246, 0.14983456690047203, 0.13809511151677614, 0.09352502336651441, 0.1961755549250873, 0.002274617319177933, 0.20861780592707813, -0.02947813174562162, -0.0271032293763253, 0.385501992270998, -0.03812088168470426, -0.09744020005281416, -0.10108395066615064, 0.18559821651896408, -0.06687492501574328, 0.013871219884170565, -0.03576531879132151, 0.0013539132365102723, -0.18204561488940116, -0.08728734303195645, 0.07857087733056113, 0.0289141812448421, 0.0062006715832390365, 0.016108257069543722, 0.00693684778785502, 0.04040458620443887, -0.026430306385823246, 0.027973345399617423, 0.1640499576783984, -0.1402915638550042, 0.07357282547839243, 0.29554565573237024, -0.026565300625784518, 0.03397191861570721, -0.42736576715620983, -0.3442936333384162, -0.21748481898164326, 0.15245642809265555, -0.07560038715911593, -0.1776624408345781, -0.11597210689769788, 0.08891518698304272, 0.23391792122616487, 0.09209821215921488, -0.07856981737931175, -0.3809845695269049, -0.493736129173412, -0.2016841810333239, 0.0805338788156922, 0.049432872628426536, 0.018417520308350598, 0.014937696821382617, 0.013364941844802357, 0.07836862963143784, -0.04340690576034309, -0.21302296644130472, -0.375258064496218, -0.4172123649900726, -0.32917478768433894, -0.09354952787547167, -0.15351943724750247, -0.2644058078336609, -0.17717093260268627, -0.8958736302285413, -0.2936401669723461, 0.3190130281542825, -0.19883420632108817, -0.1659822659772357, 0.1396693067809054, 0.07373233146510047, -0.028642425291159474, 0.1067756465985585, -0.43625022755217513, -0.47692644882562063, -0.4695184202698937, -0.18488342831861498, 0.044898764478257615, 0.10037917960136825, 0.09241154754023721, 0.003961232437171138, -0.00041546854636250683, 0.03480976096552757, -0.078078539311902, -0.3169443560301158, -0.769264609873519, -0.6872181695467096, -0.6096014921308786, -0.6559726709591018, -0.7359800707414101, -0.8136661288955153, -0.806640219642414, -0.610250641114899, -0.03817463365633892, 0.5346844242602041, -0.35643369716093576, -0.16310054833490806, 0.1018412831509914, 0.0253162540955516, 0.03044288780896014, -0.23342174949503228, -0.3020745140299719, -0.25158840015644507, -0.3018187047453306, -0.058060534958607385, 0.05359514610484098, 0.12183949548334161, -0.004607866023831928, 0.0038887160913908102, 0.01119969739210858, 0.002267908265888525, -0.008536812868209934, -0.3030024841569599, -0.7355522078755198, -0.7764382441566497, -0.9876351599047803, -0.8371634715933879, -0.6687128337725183, -0.5093439999754649, -0.29071095973748534, 0.04724860555920307, 0.45724555659179816, 0.05961469410672725, 0.010603036246706991, 0.24577410024868357, -0.1544158864951547, -0.3189296076731589, 0.07272677229844929, -0.1177044319406745, -0.12433158067731835, -0.17674420264655433, -0.2414254564538389, 0.09378962222340394, 0.05796096250919424, 0.12047179940908428, 0.01050696027897278, 0.0013499273978065463, 0.0016889841419761098, 0.018959545687577024, 0.032744446594214174, -0.22373783095375713, -0.5555601623089547, -0.40202725067581685, -0.5851894287043986, -0.5461564552704083, -0.18030648973849608, -0.22337054902378614, -0.09381641707472482, 0.24993728407342616, 0.42947040489999033, 0.02704663961849597, 0.12262303832938184, 0.18243871034264164, -0.02133196676795681, 0.15288882078410973, 0.12499736277966293, 0.16555574729606648, 0.29505219709520997, 0.06022912797455285, 0.019417079124808306, 0.13874676078881942, 0.18459759753782762, 0.12219859602109813, 0.008849361994684057, -0.00985975870700691, -0.008229950697179285, 0.042823848189508455, 0.07723023191818507, 0.1568732153012385, -0.17342183747754422, -0.20393854509712703, -0.48819140429407165, 0.11590463318935697, -0.0575761431309479, 0.04677286062641286, -0.1963110991560081, 0.024782345381254078, 0.21760479216552672, 0.10998631077567873, 0.014572876952238752, 0.38465634716188657, 0.018816463282366587, -0.09848645009919596, -0.02417606068306309, -0.10548785049321407, 0.18486979180921298, -0.0502529763859908, 0.0852423343372519, 0.17731074576138997, 0.2796285136511919, 0.0924360472403871, -4.632757894405779e-05, -0.014465604695351287, 0.02190000632325683, 0.029873153863971016, 0.2180250957637879, 0.39494050213551873, 0.21920155963774274, 0.053356688942743376, -0.04561827620444702, -0.19367752622939055, -0.16541429338942557, -0.011239498399063063, 0.06632601027709188, 0.11260487029213566, 0.20073710022793625, 0.15999360106771449, 0.21364879390870725, -0.025257426535427136, -0.3008894659337509, -0.03916747489976688, 0.09062804934671341, 0.007412603546962856, 0.09500275245318614, -0.06808900337784415, 0.01891680135697524, 0.3364148579877711, 0.12951522484651937, 0.025313662407693182, 0.025898101768907115, 0.002059790737070495, 0.0029061187575178003, 0.03022668376711156, 0.06621593583480333, 0.2733457698806423, 0.21419433567707538, 0.38537078291970467, 0.3971122290747048, 0.32986432557672923, 0.25857815236838116, 0.2549487969950424, 0.19618953259536104, -0.10964464784180288, 0.49620998441808095, 0.303552496959448, 0.4118965471235693, -0.0029309737550696777, -0.049942491899412, 0.1433476746728241, -0.019899569909821474, -0.09695117206358789, 0.02313402353050957, -0.10984427264859478, 0.09846222168458346, 0.17938437479344443, 0.14229457766139164, 0.032352494096489375, 0.0032734522338392536, -0.0013748486792925653, -0.002924323291242127, 0.005347740223110047, 0.10236028019051703, 0.16780363409276783, 0.06865520851931035, 0.3302999257720079, 0.4524375956917736, 0.4525437233387298, 0.28742603737439043, 0.0548079901577189, 0.40208052795166066, 0.1098372572608198, 0.033658012974373715, -0.007601164574689695, 0.19890148729793192, 0.15083585829595042, 0.12699273960526974, 0.0691423037534193, -0.13131150455315774, -0.12349941472526363, 0.11485887939020377, 0.05427375626693091, 0.2576772704907418, 0.11100497623009906, 0.04587414639734653, 0.03029419999191647, -0.008628298049209277, -0.0002589835683586931, 0.004964714696281741, 0.0013960726703192653, 0.05498330737147779, 0.10073174042846506, 0.1532755211638474, 0.045278631932957815, 0.011703868358119653, 0.34197248536249225, 0.24397576636855156, 0.11940524226156204, -0.0859976833692929, 0.05175362014660349, 0.1002840445971886, 0.13563508340888808, 0.0672306670951769, 0.19099022317718545, 0.1336621696801284, 0.11278309388236374, 0.0854836281407349, 0.34940344266867374, 0.416422482007636, 0.16179353248437414, 0.2955359066384985, 0.14356262451944876, 0.05192474270715758, 0.020795490788820193, -0.0029932718933134645, -0.0010387537715465256, -0.005668946429030772, 0.0031187572538582202, -0.021693990375772205, 0.07412255115081849, 0.06580648279063404, -0.1034328388275494, 0.03753867984767946, 0.1724894264530943, 0.18274555384002064, 0.0913106525622576, 0.13569119911666702, -0.08530526886462686, -0.1017329250527787, -0.0233882036894728, 0.1543430743512093, -0.07089844092378193, 0.18588479130112134, 0.2163590304330213, 0.23255145037840366, 0.48049930161388377, 0.04225133847732717, 0.05920797009087542, 0.15829214357708016, 0.10561692536481115, 0.05448652928067153, 0.004841218055147671, -0.003016660791817719, 0.009148030115773443, 0.020510330264601723, -0.008612644356390382, -0.034718211508434835, 0.12908237605658834, -0.029081961179006074, -0.15102334583977567, -0.30060824593865276, -0.2772896693592423, 0.1291276538310275, 0.007918942220713345, 0.021364098737524977, 0.18947395153309868, 0.07458274601385298, -0.06622635828908952, -0.04080328468723849, 0.03343820232432104, 0.2247652307654631, 0.16578215951055106, 0.14658853436442762, 0.09431057303636926, -0.1703806827034085, 0.00902370518754781, 0.06735002669561921, 0.06584834947934881, 0.03359867808114474, 0.020516650005864966, 0.00694280505873441, 0.018060098146384866, -0.009706503547826062, -0.012087384268861003, -0.013480868887528107, 0.007543995770391957, 